{"learner":{"attributes":{"scikit_learn":"{\"_estimator_type\": \"classifier\"}"},"feature_names":[],"feature_types":[],"gradient_booster":{"model":{"cats":{"enc":[],"feature_segments":[],"sorted_idx":[]},"gbtree_model_param":{"num_parallel_tree":"1","num_trees":"300"},"iteration_indptr":[0,3,6,9,12,15,18,21,24,27,30,33,36,39,42,45,48,51,54,57,60,63,66,69,72,75,78,81,84,87,90,93,96,99,102,105,108,111,114,117,120,123,126,129,132,135,138,141,144,147,150,153,156,159,162,165,168,171,174,177,180,183,186,189,192,195,198,201,204,207,210,213,216,219,222,225,228,231,234,237,240,243,246,249,252,255,258,261,264,267,270,273,276,279,282,285,288,291,294,297,300],"tree_info":[0,1,2,0,1,2,0,1,2,0,1,2,0,1,2,0,1,2,0,1,2,0,1,2,0,1,2,0,1,2,0,1,2,0,1,2,0,1,2,0,1,2,0,1,2,0,1,2,0,1,2,0,1,2,0,1,2,0,1,2,0,1,2,0,1,2,0,1,2,0,1,2,0,1,2,0,1,2,0,1,2,0,1,2,0,1,2,0,1,2,0,1,2,0,1,2,0,1,2,0,1,2,0,1,2,0,1,2,0,1,2,0,1,2,0,1,2,0,1,2,0,1,2,0,1,2,0,1,2,0,1,2,0,1,2,0,1,2,0,1,2,0,1,2,0,1,2,0,1,2,0,1,2,0,1,2,0,1,2,0,1,2,0,1,2,0,1,2,0,1,2,0,1,2,0,1,2,0,1,2,0,1,2,0,1,2,0,1,2,0,1,2,0,1,2,0,1,2,0,1,2,0,1,2,0,1,2,0,1,2,0,1,2,0,1,2,0,1,2,0,1,2,0,1,2,0,1,2,0,1,2,0,1,2,0,1,2,0,1,2,0,1,2,0,1,2,0,1,2,0,1,2,0,1,2,0,1,2,0,1,2,0,1,2,0,1,2,0,1,2,0,1,2,0,1,2,0,1,2,0,1,2,0,1,2,0,1,2,0,1,2,0,1,2,0,1,2,0,1,2],"trees":[{"base_weights":[-1.6530576E-7,4.4215104E-1,-4.630508E-2,8.776747E-1,1.2812604E-3,-6.669446E-2,1.1316539E-1,1.02138005E-1,3.0029913E-2,-4.3465E-2,3.567995E-2,-9.1351895E-3,6.3902006E-2],"categories":[],"categories_nodes":[],"categories_segments":[],"categories_sizes":[],"default_left":[0,0,0,0,0,0,0,0,0,0,0,0,0],"id":0,"left_children":[1,3,5,7,9,11,-1,-1,-1,-1,-1,-1,-1],"loss_changes":[4.722981E0,4.1978364E0,5.090785E0,6.059313E-1,1.9945635E0,3.646612E0,0E0,0E0,0E0,0E0,0E0,0E0,0E0],"parents":[2147483647,0,0,1,1,2,2,3,3,4,4,5,5],"right_children":[2,4,6,8,10,12,-1,-1,-1,-1,-1,-1,-1],"split_conditions":[2.7357092E-1,2.5259545E-1,6.2144333E-1,6.356504E-1,3.2592013E-1,8.2239527E-1,1.1316539E-1,1.02138005E-1,3.0029913E-2,-4.3465E-2,3.567995E-2,-9.1351895E-3,6.3902006E-2],"split_indices":[1,5,5,4,12,15,0,0,0,0,0,0,0],"split_type":[0,0,0,0,0,0,0,0,0,0,0,0,0],"sum_hessian":[2.2868442E2,2.086854E1,2.0781589E2,9.999509E0,1.0869031E1,2.052073E2,2.6085675E0,7.390941E0,2.6085675E0,4.782374E0,6.0866575E0,1.9912065E2,6.0866575E0],"tree_param":{"num_deleted":"0","num_feature":"18","num_nodes":"13","size_leaf_vector":"1"}},{"base_weights":[-2.75025E-7,-1.4847782E-1,2.1911305E-1,-3.6376122E-1,2.4272096E-3,1.09175384E-1,8.284514E-1,-4.2558357E-2,1.2823693E-2,8.181074E-3,-4.711083E-2,1.7555572E-2,-3.4330897E-2,1.1430607E-1,2.4445951E-2],"categories":[],"categories_nodes":[],"categories_segments":[],"categories_sizes":[],"default_left":[0,0,0,0,0,0,0,0,0,0,0,0,0,0,0],"id":1,"left_children":[1,3,5,7,9,11,13,-1,-1,-1,-1,-1,-1,-1,-1],"loss_changes":[7.178505E0,4.273783E0,5.879981E0,1.703382E0,2.9825642E0,2.3626733E0,2.1955032E0,0E0,0E0,0E0,0E0,0E0,0E0,0E0,0E0],"parents":[2147483647,0,0,1,1,2,2,3,3,4,4,5,5,6,6],"right_children":[2,4,6,8,10,12,14,-1,-1,-1,-1,-1,-1,-1,-1],"split_conditions":[2.4945045E-1,2.1878561E-1,3.8239798E-1,5.5626893E-1,9.810732E-1,2.9067016E-1,7.402087E-1,-4.2558357E-2,1.2823693E-2,8.181074E-3,-4.711083E-2,1.7555572E-2,-3.4330897E-2,1.1430607E-1,2.4445951E-2],"split_indices":[3,11,16,2,11,16,10,0,0,0,0,0,0,0,0],"split_type":[0,0,0,0,0,0,0,0,0,0,0,0,0,0,0],"sum_hessian":[2.1865025E2,1.3052505E2,8.812519E1,5.3207664E1,7.731739E1,7.565465E1,1.2470547E1,4.7388077E1,5.819588E0,6.692526E1,1.0392122E1,6.650958E1,9.145067E0,7.482328E0,4.9882183E0],"tree_param":{"num_deleted":"0","num_feature":"18","num_nodes":"15","size_leaf_vector":"1"}},{"base_weights":[3.530153E-7,3.1147528E-1,-6.983706E-2,5.822003E-1,-2.7830778E-2,-9.86377E-2,6.4257133E-1,-2.2693938E-2,7.32969E-2,-3.4390766E-2,1.5372907E-2,-1.20834205E-2,4.710731E-2,9.52316E-2,-4.7804605E-2],"categories":[],"categories_nodes":[],"categories_segments":[],"categories_sizes":[],"default_left":[0,0,0,0,0,0,0,0,0,0,0,0,0,0,0],"id":2,"left_children":[1,3,5,7,9,11,13,-1,-1,-1,-1,-1,-1,-1,-1],"loss_changes":[5.466685E0,4.2442527E0,4.2753606E0,3.2950659E0,1.2798573E0,2.5629525E0,3.270153E0,0E0,0E0,0E0,0E0,0E0,0E0,0E0,0E0],"parents":[2147483647,0,0,1,1,2,2,3,3,4,4,5,5,6,6],"right_children":[2,4,6,8,10,12,14,-1,-1,-1,-1,-1,-1,-1,-1],"split_conditions":[4.1879723E-3,2.0459796E-1,7.920524E-1,1.3776846E-1,1.990974E-1,9.7945774E-1,6.478648E-1,-2.2693938E-2,7.32969E-2,-3.4390766E-2,1.5372907E-2,-1.20834205E-2,4.710731E-2,9.52316E-2,-4.7804605E-2],"split_indices":[9,3,8,0,0,10,2,0,0,0,0,0,0,0,0],"split_type":[0,0,0,0,0,0,0,0,0,0,0,0,0,0,0],"sum_hessian":[2.4931177E2,4.502779E1,2.0428397E2,2.464679E1,2.0380999E1,1.9717432E2,7.109651E0,3.7918139E0,2.0854977E1,7.109651E0,1.3271349E1,1.9053865E2,6.6356745E0,5.687721E0,1.4219302E0],"tree_param":{"num_deleted":"0","num_feature":"18","num_nodes":"15","size_leaf_vector":"1"}},{"base_weights":[5.2053767E-4,4.1657415E-1,-4.3733265E-2,8.1993365E-1,-1.1688619E-3,-6.3397676E-2,1.0568603E-1,9.507439E-2,2.8460382E-2,-4.241809E-2,3.3634435E-2,-4.7546208E-2,-2.2161694E-3],"categories":[],"categories_nodes":[],"categories_segments":[],"categories_sizes":[],"default_left":[0,0,0,0,0,0,0,0,0,0,0,0,0],"id":3,"left_children":[1,3,5,7,9,11,-1,-1,-1,-1,-1,-1,-1],"loss_changes":[4.2445636E0,3.7354794E0,4.5768785E0,5.191164E-1,1.8396723E0,3.4841137E0,0E0,0E0,0E0,0E0,0E0,0E0,0E0],"parents":[2147483647,0,0,1,1,2,2,3,3,4,4,5,5],"right_children":[2,4,6,8,10,12,-1,-1,-1,-1,-1,-1,-1],"split_conditions":[2.7357092E-1,2.5259545E-1,6.2144333E-1,6.356504E-1,3.2592013E-1,3.2667639E-3,1.0568603E-1,9.507439E-2,2.8460382E-2,-4.241809E-2,3.3634435E-2,-4.7546208E-2,-2.2161694E-3],"split_indices":[1,5,5,4,12,11,0,0,0,0,0,0,0],"split_type":[0,0,0,0,0,0,0,0,0,0,0,0,0],"sum_hessian":[2.2854355E2,2.116325E1,2.073803E2,1.0277169E1,1.0886081E1,2.0466591E2,2.7143881E0,7.635422E0,2.6417465E0,4.717172E0,6.168909E0,1.7660196E1,1.8700572E2],"tree_param":{"num_deleted":"0","num_feature":"18","num_nodes":"13","size_leaf_vector":"1"}},{"base_weights":[-3.9510964E-4,-1.4146341E-1,2.0428447E-1,-3.474597E-1,-1.5745482E-4,1.0100537E-1,7.624837E-1,-4.086087E-2,1.2764051E-2,7.4369274E-3,-4.5633696E-2,1.9039989E-2,-2.1250257E-2,1.040795E-1,2.2923803E-2],"categories":[],"categories_nodes":[],"categories_segments":[],"categories_sizes":[],"default_left":[0,0,0,0,0,0,0,0,0,0,0,0,0,0,0],"id":4,"left_children":[1,3,5,7,9,11,13,-1,-1,-1,-1,-1,-1,-1,-1],"loss_changes":[6.370532E0,3.8018484E0,5.1127443E0,1.5960045E0,2.7017384E0,2.2017794E0,1.8246822E0,0E0,0E0,0E0,0E0,0E0,0E0,0E0,0E0],"parents":[2147483647,0,0,1,1,2,2,3,3,4,4,5,5,6,6],"right_children":[2,4,6,8,10,12,14,-1,-1,-1,-1,-1,-1,-1,-1],"split_conditions":[2.4945045E-1,2.1878561E-1,3.8239798E-1,5.5626893E-1,9.810732E-1,2.6088062E-1,7.402087E-1,-4.086087E-2,1.2764051E-2,7.4369274E-3,-4.5633696E-2,1.9039989E-2,-2.1250257E-2,1.040795E-1,2.2923803E-2],"split_indices":[3,11,16,2,11,16,10,0,0,0,0,0,0,0,0],"split_type":[0,0,0,0,0,0,0,0,0,0,0,0,0,0,0],"sum_hessian":[2.1863277E2,1.2961143E2,8.902133E1,5.2141083E1,7.747035E1,7.611866E1,1.2902674E1,4.631938E1,5.8217006E0,6.7310684E1,1.0159674E1,5.9535286E1,1.6583376E1,7.8524942E0,5.05018E0],"tree_param":{"num_deleted":"0","num_feature":"18","num_nodes":"15","size_leaf_vector":"1"}},{"base_weights":[-1.3069995E-4,2.9053316E-1,-6.5929815E-2,-3.493438E-1,4.1564703E-1,-9.351027E-2,6.0684776E-1,-5.4251697E-2,3.214785E-2,6.782908E-2,1.7508448E-3,5.10252E-2,-1.1400323E-2,-4.7488656E-2,9.0226896E-2],"categories":[],"categories_nodes":[],"categories_segments":[],"categories_sizes":[],"default_left":[0,0,0,0,0,0,0,0,0,0,0,0,0,0,0],"id":5,"left_children":[1,3,5,7,9,11,13,-1,-1,-1,-1,-1,-1,-1,-1],"loss_changes":[4.8049216E0,3.8578503E0,3.857952E0,1.2276609E0,4.0921125E0,2.5037313E0,3.0491967E0,0E0,0E0,0E0,0E0,0E0,0E0,0E0,0E0],"parents":[2147483647,0,0,1,1,2,2,3,3,4,4,5,5,6,6],"right_children":[2,4,6,8,10,12,14,-1,-1,-1,-1,-1,-1,-1,-1],"split_conditions":[4.1879723E-3,1.4743944E-1,7.920524E-1,5.645265E-1,2.4945045E-1,2.8750172E-1,6.951038E-2,-5.4251697E-2,3.214785E-2,6.782908E-2,1.7508448E-3,5.10252E-2,-1.1400323E-2,-4.7488656E-2,9.0226896E-2],"split_indices":[9,7,8,17,3,13,16,0,0,0,0,0,0,0,0],"split_type":[0,0,0,0,0,0,0,0,0,0,0,0,0,0,0],"sum_hessian":[2.492306E2,4.5374756E1,2.0385587E2,7.1279044E0,3.824685E1,1.9665501E2,7.2008457E0,5.6827416E0,1.445163E0,2.2620754E1,1.5626095E1,5.671213E0,1.909838E2,1.4143769E0,5.786469E0],"tree_param":{"num_deleted":"0","num_feature":"18","num_nodes":"15","size_leaf_vector":"1"}},{"base_weights":[7.382523E-4,-1.7680297E-2,8.943594E-2,3.8601795E-1,-6.0117573E-2,7.5609215E-2,-3.7132583E-3,-8.379872E-3,6.0042616E-2],"categories":[],"categories_nodes":[],"categories_segments":[],"categories_sizes":[],"default_left":[0,0,0,0,0,0,0,0,0],"id":6,"left_children":[1,3,-1,5,7,-1,-1,-1,-1],"loss_changes":[3.7906678E0,3.8897827E0,0E0,3.4110909E0,3.2584486E0,0E0,0E0,0E0,0E0],"parents":[2147483647,0,0,1,1,3,3,4,4],"right_children":[2,4,-1,6,8,-1,-1,-1,-1],"split_conditions":[6.2144333E-1,2.7357092E-1,8.943594E-2,2.5259545E-1,8.2239527E-1,7.5609215E-2,-3.7132583E-3,-8.379872E-3,6.0042616E-2],"split_indices":[5,1,0,5,15,0,0,0,0],"split_type":[0,0,0,0,0,0,0,0,0],"sum_hessian":[2.2834613E2,2.2469513E2,3.6510074E0,2.060331E1,2.0409181E2,1.0571229E1,1.0032081E1,1.9787108E2,6.2207355E0],"tree_param":{"num_deleted":"0","num_feature":"18","num_nodes":"9","size_leaf_vector":"1"}},{"base_weights":[-5.9019664E-4,-1.3455158E-1,1.9068433E-1,-3.338783E-1,-1.3330272E-4,9.326463E-2,7.072727E-1,-3.9413195E-2,1.2335536E-2,6.962976E-3,-4.395637E-2,1.3280541E-2,-5.5093724E-2,1.1870573E-1,4.0274184E-2],"categories":[],"categories_nodes":[],"categories_segments":[],"categories_sizes":[],"default_left":[0,0,0,0,0,0,0,0,0,0,0,0,0,0,0],"id":7,"left_children":[1,3,5,7,9,11,13,-1,-1,-1,-1,-1,-1,-1,-1],"loss_changes":[5.648739E0,3.4736257E0,4.5037956E0,1.4871721E0,2.4350033E0,2.0484943E0,1.6047297E0,0E0,0E0,0E0,0E0,0E0,0E0,0E0,0E0],"parents":[2147483647,0,0,1,1,2,2,3,3,4,4,5,5,6,6],"right_children":[2,4,6,8,10,12,14,-1,-1,-1,-1,-1,-1,-1,-1],"split_conditions":[2.4945045E-1,2.1878561E-1,3.8239798E-1,5.5626893E-1,9.810732E-1,2.996989E-1,3.2586563E-1,-3.9413195E-2,1.2335536E-2,6.962976E-3,-4.395637E-2,1.3280541E-2,-5.5093724E-2,1.1870573E-1,4.0274184E-2],"split_indices":[3,11,16,2,11,16,12,0,0,0,0,0,0,0,0],"split_type":[0,0,0,0,0,0,0,0,0,0,0,0,0,0,0],"sum_hessian":[2.1845102E2,1.2864766E2,8.980336E1,5.1216156E1,7.7431496E1,7.6548225E1,1.3255141E1,4.5374744E1,5.841415E0,6.754909E1,9.882408E0,7.2869385E1,3.6788394E0,4.0214343E0,9.233707E0],"tree_param":{"num_deleted":"0","num_feature":"18","num_nodes":"15","size_leaf_vector":"1"}},{"base_weights":[-1.5919204E-4,2.6869813E-1,-6.154101E-2,-3.2989115E-1,3.831422E-1,-8.797354E-2,5.7639843E-1,-5.17258E-2,3.0526677E-2,-5.582537E-7,6.0914297E-2,4.8579507E-2,-1.076975E-2,-4.607106E-2,8.5332096E-2],"categories":[],"categories_nodes":[],"categories_segments":[],"categories_sizes":[],"default_left":[0,0,0,0,0,0,0,0,0,0,0,0,0,0,0],"id":8,"left_children":[1,3,5,7,9,11,13,-1,-1,-1,-1,-1,-1,-1,-1],"loss_changes":[4.1416664E0,3.3219626E0,3.495956E0,1.1128614E0,3.431013E0,2.282384E0,2.7657647E0,0E0,0E0,0E0,0E0,0E0,0E0,0E0,0E0],"parents":[2147483647,0,0,1,1,2,2,3,3,4,4,5,5,6,6],"right_children":[2,4,6,8,10,12,14,-1,-1,-1,-1,-1,-1,-1,-1],"split_conditions":[4.1879723E-3,1.4743944E-1,7.920524E-1,5.645265E-1,4.210275E-1,2.8750172E-1,6.951038E-2,-5.17258E-2,3.0526677E-2,-5.582537E-7,6.0914297E-2,4.8579507E-2,-1.076975E-2,-4.607106E-2,8.5332096E-2],"split_indices":[9,7,8,17,2,13,16,0,0,0,0,0,0,0,0],"split_type":[0,0,0,0,0,0,0,0,0,0,0,0,0,0,0],"sum_hessian":[2.4896318E2,4.5647213E1,2.0331596E2,7.024365E0,3.862285E1,1.9605469E2,7.2612796E0,5.56759E0,1.4567747E0,1.47005005E1,2.3922348E1,5.73032E0,1.9032437E2,1.390396E0,5.8708835E0],"tree_param":{"num_deleted":"0","num_feature":"18","num_nodes":"15","size_leaf_vector":"1"}},{"base_weights":[1.0889489E-3,-2.4968791E-1,6.2113255E-2,4.2236546E-1,-4.320868E-1,8.526519E-1,3.21282E-2,-4.8643984E-2,7.2178446E-2,-5.0518245E-2,6.498715E-2,1.0694857E-1,-1.0060308E-3,3.810422E-2,-8.620498E-4],"categories":[],"categories_nodes":[],"categories_segments":[],"categories_sizes":[],"default_left":[0,0,0,0,0,0,0,0,0,0,0,0,0,0,0],"id":9,"left_children":[1,3,5,7,9,11,13,-1,-1,-1,-1,-1,-1,-1,-1],"loss_changes":[3.5208461E0,5.7022076E0,4.358528E0,3.1043305E0,3.168364E0,1.2682858E0,2.552587E0,0E0,0E0,0E0,0E0,0E0,0E0,0E0,0E0],"parents":[2147483647,0,0,1,1,2,2,3,3,4,4,5,5,6,6],"right_children":[2,4,6,8,10,12,14,-1,-1,-1,-1,-1,-1,-1,-1],"split_conditions":[3.258897E-1,3.21935E-1,3.2590884E-1,3.2625873E-2,7.6762325E-1,4.8986164E-1,2.7357092E-1,-4.8643984E-2,7.2178446E-2,-5.0518245E-2,6.498715E-2,1.0694857E-1,-1.0060308E-3,3.810422E-2,-8.620498E-4],"split_indices":[12,12,12,3,4,5,1,0,0,0,0,0,0,0,0],"split_type":[0,0,0,0,0,0,0,0,0,0,0,0,0,0,0],"sum_hessian":[2.2805486E2,4.402878E1,1.8402608E2,9.1179285E0,3.4910854E1,5.7224E0,1.7830367E2,2.1047919E0,7.013137E0,3.320093E1,1.7099242E0,4.3814816E0,1.3409185E0,1.7772675E1,1.6053099E2],"tree_param":{"num_deleted":"0","num_feature":"18","num_nodes":"15","size_leaf_vector":"1"}},{"base_weights":[-8.4169157E-4,-2.1166986E-1,1.09335735E-1,-2.823292E-1,3.1456512E-1,6.58189E-1,3.520023E-2,-4.0826913E-2,-5.9683467E-3,7.158153E-2,-3.1906884E-2,-2.842145E-2,8.747572E-2,4.19E-2,-2.1170992E-3],"categories":[],"categories_nodes":[],"categories_segments":[],"categories_sizes":[],"default_left":[0,0,0,0,0,0,0,0,0,0,0,0,0,0,0],"id":10,"left_children":[1,3,5,7,9,11,13,-1,-1,-1,-1,-1,-1,-1,-1],"loss_changes":[5.114358E0,2.898715E0,5.8609786E0,1.8585181E0,2.6230571E0,3.749281E0,2.788109E0,0E0,0E0,0E0,0E0,0E0,0E0,0E0,0E0],"parents":[2147483647,0,0,1,1,2,2,3,3,4,4,5,5,6,6],"right_children":[2,4,6,8,10,12,14,-1,-1,-1,-1,-1,-1,-1,-1],"split_conditions":[1.8569006E-1,5.548821E-1,3.8575464E-1,2.6845267E-1,9.043696E-2,1.1958031E-1,2.805664E-1,-4.0826913E-2,-5.9683467E-3,7.158153E-2,-3.1906884E-2,-2.842145E-2,8.747572E-2,4.19E-2,-2.1170992E-3],"split_indices":[11,2,2,3,11,16,1,0,0,0,0,0,0,0,0],"split_type":[0,0,0,0,0,0,0,0,0,0,0,0,0,0,0],"sum_hessian":[2.1817961E2,7.456872E1,1.436109E2,6.6150024E1,8.4186945E0,1.6152159E1,1.2745874E2,4.1718292E1,2.4431734E1,5.0751476E0,3.3435473E0,2.9598627E0,1.3192296E1,1.5499376E1,1.1195936E2],"tree_param":{"num_deleted":"0","num_feature":"18","num_nodes":"15","size_leaf_vector":"1"}},{"base_weights":[-2.6023426E-4,2.5147563E-1,-5.803393E-2,-3.1155878E-1,3.568902E-1,-8.334113E-2,5.486861E-1,-4.9454655E-2,2.9368808E-2,-2.0857874E-2,4.8485957E-2,-3.6824269E-3,-3.2713298E-2,8.1131935E-2,-4.514138E-2],"categories":[],"categories_nodes":[],"categories_segments":[],"categories_sizes":[],"default_left":[0,0,0,0,0,0,0,0,0,0,0,0,0,0,0],"id":11,"left_children":[1,3,5,7,9,11,13,-1,-1,-1,-1,-1,-1,-1,-1],"loss_changes":[3.6442575E0,2.8872411E0,3.174901E0,1.0212924E0,2.9857006E0,2.2163994E0,2.5442529E0,0E0,0E0,0E0,0E0,0E0,0E0,0E0,0E0],"parents":[2147483647,0,0,1,1,2,2,3,3,4,4,5,5,6,6],"right_children":[2,4,6,8,10,12,14,-1,-1,-1,-1,-1,-1,-1,-1],"split_conditions":[4.1879723E-3,1.4743944E-1,7.920524E-1,5.645265E-1,9.458011E-2,4.1511178E-1,6.478648E-1,-4.9454655E-2,2.9368808E-2,-2.0857874E-2,4.8485957E-2,-3.6824269E-3,-3.2713298E-2,8.1131935E-2,-4.514138E-2],"split_indices":[9,7,8,17,5,16,2,0,0,0,0,0,0,0,0],"split_type":[0,0,0,0,0,0,0,0,0,0,0,0,0,0,0],"sum_hessian":[2.4856927E2,4.5772617E1,2.0279666E2,6.9099603E0,3.886266E1,1.9550452E2,7.29215E0,5.446262E0,1.4636984E0,7.0555954E0,3.1807062E1,1.6514496E2,3.0359547E1,5.924972E0,1.3671777E0],"tree_param":{"num_deleted":"0","num_feature":"18","num_nodes":"15","size_leaf_vector":"1"}},{"base_weights":[1.3886876E-3,-1.6263712E-2,8.394999E-2,-2.6824737E-1,4.3314185E-2,3.6048856E-2,-4.382978E-2,7.6032355E-2,1.7176137E-3],"categories":[],"categories_nodes":[],"categories_segments":[],"categories_sizes":[],"default_left":[0,0,0,0,0,0,0,0,0],"id":12,"left_children":[1,3,-1,5,7,-1,-1,-1,-1],"loss_changes":[3.3983092E0,3.3900247E0,0E0,4.773753E0,3.4140682E0,0E0,0E0,0E0,0E0],"parents":[2147483647,0,0,1,1,3,3,4,4],"right_children":[2,4,-1,6,8,-1,-1,-1,-1],"split_conditions":[6.2144333E-1,3.258897E-1,8.394999E-2,3.21935E-1,3.2590884E-1,3.6048856E-2,-4.382978E-2,7.6032355E-2,1.7176137E-3],"split_indices":[5,12,0,12,12,0,0,0,0],"split_type":[0,0,0,0,0,0,0,0,0],"sum_hessian":[2.2777528E2,2.2403717E2,3.7381036E0,4.2171425E1,1.8186575E2,8.739297E0,3.3432125E1,5.408658E0,1.7645709E2],"tree_param":{"num_deleted":"0","num_feature":"18","num_nodes":"9","size_leaf_vector":"1"}},{"base_weights":[-9.088381E-4,-1.23810604E-1,1.7019688E-1,-3.0802125E-1,-4.227386E-3,8.0823496E-2,6.3417625E-1,-2.0472856E-2,-6.1866146E-2,6.0594506E-3,-4.250411E-2,1.1895089E-2,-5.4764815E-2,8.701792E-2,1.764655E-2],"categories":[],"categories_nodes":[],"categories_segments":[],"categories_sizes":[],"default_left":[0,0,0,0,0,0,0,0,0,0,0,0,0,0,0],"id":13,"left_children":[1,3,5,7,9,11,13,-1,-1,-1,-1,-1,-1,-1,-1],"loss_changes":[4.623877E0,2.8174713E0,3.7602868E0,1.4890909E0,2.1699333E0,1.9393774E0,1.4343119E0,0E0,0E0,0E0,0E0,0E0,0E0,0E0,0E0],"parents":[2147483647,0,0,1,1,2,2,3,3,4,4,5,5,6,6],"right_children":[2,4,6,8,10,12,14,-1,-1,-1,-1,-1,-1,-1,-1],"split_conditions":[2.4945045E-1,2.1878561E-1,3.8239798E-1,1.9006357E-1,9.810732E-1,2.996989E-1,7.402087E-1,-2.0472856E-2,-6.1866146E-2,6.0594506E-3,-4.250411E-2,1.1895089E-2,-5.4764815E-2,8.701792E-2,1.764655E-2],"split_indices":[3,11,16,3,11,16,10,0,0,0,0,0,0,0,0],"split_type":[0,0,0,0,0,0,0,0,0,0,0,0,0,0,0],"sum_hessian":[2.1787689E2,1.269603E2,9.0916595E1,4.935545E1,7.760485E1,7.721698E1,1.3699617E1,3.828436E1,1.1071091E1,6.798802E1,9.616828E0,7.3564766E1,3.6522129E0,8.444396E0,5.255222E0],"tree_param":{"num_deleted":"0","num_feature":"18","num_nodes":"15","size_leaf_vector":"1"}},{"base_weights":[-4.766817E-4,9.262455E-2,-1.4279643E-1,-3.149936E-1,1.621991E-1,-1.9170529E-1,2.7017736E-1,-4.1262656E-2,4.7956455E-2,-2.4740303E-2,2.1764494E-2,-1.1264509E-2,-6.4628474E-2,-2.3375228E-2,5.717941E-2],"categories":[],"categories_nodes":[],"categories_segments":[],"categories_sizes":[],"default_left":[0,0,0,0,0,0,0,0,0,0,0,0,0,0,0],"id":14,"left_children":[1,3,5,7,9,11,13,-1,-1,-1,-1,-1,-1,-1,-1],"loss_changes":[3.3147895E0,4.3402114E0,2.0500445E0,1.9348278E0,3.0028038E0,3.1272793E0,1.7890296E0,0E0,0E0,0E0,0E0,0E0,0E0,0E0,0E0],"parents":[2147483647,0,0,1,1,2,2,3,3,4,4,5,5,6,6],"right_children":[2,4,6,8,10,12,14,-1,-1,-1,-1,-1,-1,-1,-1],"split_conditions":[2.5002262E-1,2.805664E-1,5.684142E-1,8.41171E-1,8.1572555E-2,4.9835548E-1,8.138381E-2,-4.1262656E-2,4.7956455E-2,-2.4740303E-2,2.1764494E-2,-1.1264509E-2,-6.4628474E-2,-2.3375228E-2,5.717941E-2],"split_indices":[3,1,17,9,16,2,6,0,0,0,0,0,0,0,0],"split_type":[0,0,0,0,0,0,0,0,0,0,0,0,0,0,0],"sum_hessian":[2.4817186E2,1.5023917E2,9.79327E1,2.1390528E1,1.2884865E2,8.804164E1,9.891059E0,1.9477833E1,1.9126949E0,1.49493475E1,1.1389929E2,7.606096E1,1.198068E1,3.7877066E0,6.1033525E0],"tree_param":{"num_deleted":"0","num_feature":"18","num_nodes":"15","size_leaf_vector":"1"}},{"base_weights":[1.9382397E-3,-1.50449285E-2,7.9495154E-2,-2.564184E-1,4.1252162E-2,3.4342557E-2,-4.2328816E-2,7.105839E-2,1.6360598E-3],"categories":[],"categories_nodes":[],"categories_segments":[],"categories_sizes":[],"default_left":[0,0,0,0,0,0,0,0,0],"id":15,"left_children":[1,3,-1,5,7,-1,-1,-1,-1],"loss_changes":[3.0889246E0,3.0633724E0,0E0,4.412169E0,3.037801E0,0E0,0E0,0E0,0E0],"parents":[2147483647,0,0,1,1,3,3,4,4],"right_children":[2,4,-1,6,8,-1,-1,-1,-1],"split_conditions":[6.2144333E-1,3.258897E-1,7.9495154E-2,3.21935E-1,3.2590884E-1,3.4342557E-2,-4.2328816E-2,7.105839E-2,1.6360598E-3],"split_indices":[5,12,0,12,12,0,0,0,0],"split_type":[0,0,0,0,0,0,0,0,0],"sum_hessian":[2.2746695E2,2.2365811E2,3.808833E0,4.162716E1,1.8203096E2,8.829577E0,3.279758E1,5.5390573E0,1.764919E2],"tree_param":{"num_deleted":"0","num_feature":"18","num_nodes":"9","size_leaf_vector":"1"}},{"base_weights":[-1.265999E-3,-1.9505633E-1,9.720482E-2,-2.6515952E-1,3.1475917E-1,5.961292E-1,2.8186731E-2,-4.2671878E-2,-1.1279064E-2,6.772252E-2,-2.9245837E-2,-2.8053692E-2,7.909121E-2,3.8103916E-2,-2.468624E-3],"categories":[],"categories_nodes":[],"categories_segments":[],"categories_sizes":[],"default_left":[0,0,0,0,0,0,0,0,0,0,0,0,0,0,0],"id":16,"left_children":[1,3,5,7,9,11,13,-1,-1,-1,-1,-1,-1,-1,-1],"loss_changes":[4.1882567E0,2.726285E0,4.9948144E0,1.5654936E0,2.2661266E0,3.2335234E0,2.4142582E0,0E0,0E0,0E0,0E0,0E0,0E0,0E0,0E0],"parents":[2147483647,0,0,1,1,2,2,3,3,4,4,5,5,6,6],"right_children":[2,4,6,8,10,12,14,-1,-1,-1,-1,-1,-1,-1,-1],"split_conditions":[1.8569006E-1,5.548821E-1,3.8575464E-1,1.9042115E-1,9.043696E-2,1.1958031E-1,2.805664E-1,-4.2671878E-2,-1.1279064E-2,6.772252E-2,-2.9245837E-2,-2.8053692E-2,7.909121E-2,3.8103916E-2,-2.468624E-3],"split_indices":[11,2,2,7,11,16,1,0,0,0,0,0,0,0,0],"split_type":[0,0,0,0,0,0,0,0,0,0,0,0,0,0,0],"sum_hessian":[2.1748575E2,7.294646E1,1.445393E2,6.455024E1,8.396215E0,1.6636747E1,1.2790255E2,3.0456324E1,3.4093914E1,5.1855283E0,3.210687E0,2.9444242E0,1.3692323E1,1.5859056E1,1.12043495E2],"tree_param":{"num_deleted":"0","num_feature":"18","num_nodes":"15","size_leaf_vector":"1"}},{"base_weights":[-6.68124E-4,2.3378997E-1,-5.4648235E-2,-2.9133457E-1,3.2978585E-1,-7.8703575E-2,5.2125394E-1,-4.9099404E-2,2.498733E-2,6.640833E-2,1.2614207E-2,3.2643378E-2,-1.04516065E-2,-4.2788517E-2,7.6197885E-2],"categories":[],"categories_nodes":[],"categories_segments":[],"categories_sizes":[],"default_left":[0,0,0,0,0,0,0,0,0,0,0,0,0,0,0],"id":17,"left_children":[1,3,5,7,9,11,13,-1,-1,-1,-1,-1,-1,-1,-1],"loss_changes":[3.1614528E0,2.4526927E0,2.8538241E0,9.60796E-1,2.6388574E0,2.0813665E0,2.2160444E0,0E0,0E0,0E0,0E0,0E0,0E0,0E0,0E0],"parents":[2147483647,0,0,1,1,2,2,3,3,4,4,5,5,6,6],"right_children":[2,4,6,8,10,12,14,-1,-1,-1,-1,-1,-1,-1,-1],"split_conditions":[4.1879723E-3,1.4743944E-1,7.920524E-1,3.0724645E-1,3.0824316E-1,1.0584051E-2,6.951038E-2,-4.9099404E-2,2.498733E-2,6.640833E-2,1.2614207E-2,3.2643378E-2,-1.04516065E-2,-4.2788517E-2,7.6197885E-2],"split_indices":[9,7,8,6,1,11,16,0,0,0,0,0,0,0,0],"split_type":[0,0,0,0,0,0,0,0,0,0,0,0,0,0,0],"sum_hessian":[2.4778777E2,4.5749146E1,2.0203862E2,6.756162E0,3.8992985E1,1.9476659E2,7.2720284E0,5.003193E0,1.7529695E0,1.390531E1,2.5087675E1,1.0968303E1,1.837983E2,1.3139302E0,5.9580984E0],"tree_param":{"num_deleted":"0","num_feature":"18","num_nodes":"15","size_leaf_vector":"1"}},{"base_weights":[2.0221751E-3,-1.4245052E-2,7.511558E-2,3.2758683E-1,-5.133808E-2,6.410422E-2,-4.3109786E-3,-4.4268355E-2,-1.3492587E-3],"categories":[],"categories_nodes":[],"categories_segments":[],"categories_sizes":[],"default_left":[0,0,0,0,0,0,0,0,0],"id":18,"left_children":[1,3,-1,5,7,-1,-1,-1,-1],"loss_changes":[2.7907383E0,2.8603485E0,0E0,2.5942378E0,3.0031426E0,0E0,0E0,0E0,0E0],"parents":[2147483647,0,0,1,1,3,3,4,4],"right_children":[2,4,-1,6,8,-1,-1,-1,-1],"split_conditions":[6.2144333E-1,2.7357092E-1,7.511558E-2,2.5259545E-1,3.2667639E-3,6.410422E-2,-4.3109786E-3,-4.4268355E-2,-1.3492587E-3],"split_indices":[5,1,0,5,11,0,0,0,0],"split_type":[0,0,0,0,0,0,0,0,0],"sum_hessian":[2.2712769E2,2.2326064E2,3.8670578E0,2.1088398E1,2.0217223E2,1.103125E1,1.0057148E1,1.6884024E1,1.8528821E2],"tree_param":{"num_deleted":"0","num_feature":"18","num_nodes":"9","size_leaf_vector":"1"}},{"base_weights":[-1.4529643E-3,-1.1391948E-1,1.516804E-1,2.2367339E-1,-1.6759661E-1,6.974055E-2,5.7117194E-1,6.5466516E-2,-2.1322455E-2,2.0034445E-2,-2.1446044E-2,1.2720165E-2,-3.36154E-2,9.781394E-2,3.131744E-2],"categories":[],"categories_nodes":[],"categories_segments":[],"categories_sizes":[],"default_left":[0,0,0,0,0,0,0,0,0,0,0,0,0,0,0],"id":19,"left_children":[1,3,5,7,9,11,13,-1,-1,-1,-1,-1,-1,-1,-1],"loss_changes":[3.7731917E0,2.3263242E0,3.149123E0,3.4830735E0,1.931988E0,1.8795364E0,1.2708712E0,0E0,0E0,0E0,0E0,0E0,0E0,0E0,0E0],"parents":[2147483647,0,0,1,1,2,2,3,3,4,4,5,5,6,6],"right_children":[2,4,6,8,10,12,14,-1,-1,-1,-1,-1,-1,-1,-1],"split_conditions":[2.4945045E-1,1.1829567E-1,3.8239798E-1,4.1665244E-1,1.5273231E-1,2.9067016E-1,3.2586563E-1,6.5466516E-2,-2.1322455E-2,2.0034445E-2,-2.1446044E-2,1.2720165E-2,-3.36154E-2,9.781394E-2,3.131744E-2],"split_indices":[3,0,16,5,5,16,12,0,0,0,0,0,0,0,0],"split_type":[0,0,0,0,0,0,0,0,0,0,0,0,0,0,0],"sum_hessian":[2.1708328E2,1.2530844E2,9.177484E1,1.6756207E1,1.0855224E2,7.775341E1,1.402143E1,8.184203E0,8.572004E0,1.1894005E1,9.665823E1,6.8712616E1,9.040795E0,4.3571506E0,9.66428E0],"tree_param":{"num_deleted":"0","num_feature":"18","num_nodes":"15","size_leaf_vector":"1"}},{"base_weights":[-5.8180897E-4,2.2209089E-1,-5.1985636E-2,1.2966165E-1,7.841321E-2,-7.503173E-2,5.003903E-1,-5.1410574E-2,2.11132E-2,-2.967873E-3,-3.1434134E-2,7.285667E-2,-4.158966E-2],"categories":[],"categories_nodes":[],"categories_segments":[],"categories_sizes":[],"default_left":[0,0,0,0,0,0,0,0,0,0,0,0,0],"id":20,"left_children":[1,3,5,7,-1,9,11,-1,-1,-1,-1,-1,-1],"loss_changes":[2.8533366E0,2.3271542E0,2.615635E0,2.277224E0,0E0,2.110099E0,2.0260878E0,0E0,0E0,0E0,0E0,0E0,0E0],"parents":[2147483647,0,0,1,1,2,2,3,3,5,5,6,6],"right_children":[2,4,6,8,-1,10,12,-1,-1,-1,-1,-1,-1],"split_conditions":[4.1879723E-3,3.0965619E-3,7.920524E-1,1.3776846E-1,7.841321E-2,4.1511178E-1,6.478648E-1,-5.1410574E-2,2.11132E-2,-2.967873E-3,-3.1434134E-2,7.285667E-2,-4.158966E-2],"split_indices":[9,9,8,0,0,16,2,0,0,0,0,0,0],"split_type":[0,0,0,0,0,0,0,0,0,0,0,0,0],"sum_hessian":[2.4727313E2,4.5754005E1,2.0151913E2,4.034917E1,5.4048357E0,1.942777E2,7.241439E0,3.936125E0,3.6413044E1,1.6426993E2,3.0007761E1,5.961708E0,1.2797309E0],"tree_param":{"num_deleted":"0","num_feature":"18","num_nodes":"13","size_leaf_vector":"1"}},{"base_weights":[2.0297954E-3,-2.2052312E-1,5.423769E-2,3.5676578E-1,-3.905849E-1,6.8934864E-1,2.855092E-2,-4.7994126E-2,6.2106695E-2,-4.655506E-2,6.466943E-2,8.839883E-2,-6.2915348E-3,-3.987385E-2,5.6993584E-3],"categories":[],"categories_nodes":[],"categories_segments":[],"categories_sizes":[],"default_left":[0,0,0,0,0,0,0,0,0,0,0,0,0,0,0],"id":21,"left_children":[1,3,5,7,9,11,13,-1,-1,-1,-1,-1,-1,-1,-1],"loss_changes":[2.6584563E0,4.40769E0,3.003224E0,2.6014829E0,2.9496684E0,1.1039388E0,2.1998105E0,0E0,0E0,0E0,0E0,0E0,0E0,0E0,0E0],"parents":[2147483647,0,0,1,1,2,2,3,3,4,4,5,5,6,6],"right_children":[2,4,6,8,10,12,14,-1,-1,-1,-1,-1,-1,-1,-1],"split_conditions":[3.258897E-1,3.21935E-1,3.2590884E-1,3.2625873E-2,7.6762325E-1,4.8986164E-1,3.2591793E-1,-4.7994126E-2,6.2106695E-2,-4.655506E-2,6.466943E-2,8.839883E-2,-6.2915348E-3,-3.987385E-2,5.6993584E-3],"split_indices":[12,12,12,3,4,5,12,0,0,0,0,0,0,0,0],"split_type":[0,0,0,0,0,0,0,0,0,0,0,0,0,0,0],"sum_hessian":[2.2677272E2,4.2476986E1,1.8429573E2,9.415937E0,3.306105E1,6.159677E0,1.7813606E2,2.0644739E0,7.3514633E0,3.1346754E1,1.7142956E0,4.7544217E0,1.4052552E0,1.0305107E1,1.6783095E2],"tree_param":{"num_deleted":"0","num_feature":"18","num_nodes":"15","size_leaf_vector":"1"}},{"base_weights":[-1.1514934E-3,-1.8224387E-1,8.8939115E-2,-2.4569009E-1,3.5360506E-1,5.488097E-1,2.4191719E-2,-3.732797E-2,-3.5698244E-3,6.8582825E-2,-2.2693453E-2,-2.7379809E-2,7.263604E-2,-5.8393586E-2,5.297659E-3],"categories":[],"categories_nodes":[],"categories_segments":[],"categories_sizes":[],"default_left":[0,0,0,0,0,0,0,0,0,0,0,0,0,0,0],"id":22,"left_children":[1,3,5,7,9,11,13,-1,-1,-1,-1,-1,-1,-1,-1],"loss_changes":[3.566187E0,2.5556276E0,4.333284E0,1.7420795E0,1.7174159E0,2.8235111E0,2.2892013E0,0E0,0E0,0E0,0E0,0E0,0E0,0E0,0E0],"parents":[2147483647,0,0,1,1,2,2,3,3,4,4,5,5,6,6],"right_children":[2,4,6,8,10,12,14,-1,-1,-1,-1,-1,-1,-1,-1],"split_conditions":[1.8569006E-1,5.603265E-1,3.8575464E-1,2.6845267E-1,9.043696E-2,1.1958031E-1,2.8750172E-1,-3.732797E-2,-3.5698244E-3,6.8582825E-2,-2.2693453E-2,-2.7379809E-2,7.263604E-2,-5.8393586E-2,5.297659E-3],"split_indices":[11,2,2,3,11,16,13,0,0,0,0,0,0,0,0],"split_type":[0,0,0,0,0,0,0,0,0,0,0,0,0,0,0],"sum_hessian":[2.1659355E2,7.1615456E1,1.449781E2,6.451783E1,7.097623E0,1.6970238E1,1.2800786E2,3.9649483E1,2.4868345E1,4.3989115E0,2.6987114E0,2.9163668E0,1.4053872E1,4.91361E0,1.2309425E2],"tree_param":{"num_deleted":"0","num_feature":"18","num_nodes":"15","size_leaf_vector":"1"}},{"base_weights":[-8.547573E-4,1.08904794E-1,-1.0060316E-1,-4.8167165E-2,2.8253746E-1,-4.4844395E-1,-4.7733348E-2,-1.43843535E-2,5.315998E-2,6.4489106E-3,4.3150302E-2,1.3311381E-2,-6.465724E-2,5.193917E-2,-8.193524E-3],"categories":[],"categories_nodes":[],"categories_segments":[],"categories_sizes":[],"default_left":[0,0,0,0,0,0,0,0,0,0,0,0,0,0,0],"id":23,"left_children":[1,3,5,7,9,11,13,-1,-1,-1,-1,-1,-1,-1,-1],"loss_changes":[2.7235277E0,3.243834E0,2.3752122E0,3.5733247E0,1.8041611E0,2.0535374E0,2.2585287E0,0E0,0E0,0E0,0E0,0E0,0E0,0E0,0E0],"parents":[2147483647,0,0,1,1,2,2,3,3,4,4,5,5,6,6],"right_children":[2,4,6,8,10,12,14,-1,-1,-1,-1,-1,-1,-1,-1],"split_conditions":[1.8817748E-1,9.528727E-2,3.191151E-1,3.4941244E-1,5.3524643E-1,2.930896E-1,3.519792E-1,-1.43843535E-2,5.315998E-2,6.4489106E-3,4.3150302E-2,1.3311381E-2,-6.465724E-2,5.193917E-2,-8.193524E-3],"split_indices":[15,15,15,1,17,4,15,0,0,0,0,0,0,0,0],"split_type":[0,0,0,0,0,0,0,0,0,0,0,0,0,0,0],"sum_hessian":[2.4676099E2,1.1744117E2,1.2931981E2,6.2040524E1,5.5400642E1,1.6075294E1,1.1324452E2,5.389789E1,8.142636E0,2.3067905E1,3.2332737E1,4.168329E0,1.1906966E1,5.634184E0,1.0761034E2],"tree_param":{"num_deleted":"0","num_feature":"18","num_nodes":"15","size_leaf_vector":"1"}},{"base_weights":[2.1133255E-3,-1.3397019E-2,7.0822574E-2,-3.2990497E-2,5.704796E-1,-2.8408205E-2,2.2338713E-3,-4.3854296E-2,8.727531E-2],"categories":[],"categories_nodes":[],"categories_segments":[],"categories_sizes":[],"default_left":[0,0,0,0,0,0,0,0,0],"id":24,"left_children":[1,3,-1,5,7,-1,-1,-1,-1],"loss_changes":[2.5000284E0,2.5756736E0,0E0,3.023654E0,2.6126614E0,0E0,0E0,0E0,0E0],"parents":[2147483647,0,0,1,1,3,3,4,4],"right_children":[2,4,-1,6,8,-1,-1,-1,-1],"split_conditions":[6.2144333E-1,8.2239527E-1,7.0822574E-2,3.258897E-1,1.5846866E-1,-2.8408205E-2,2.2338713E-3,-4.3854296E-2,8.727531E-2],"split_indices":[5,15,0,12,6,0,0,0,0],"split_type":[0,0,0,0,0,0,0,0,0],"sum_hessian":[2.2640411E2,2.2249779E2,3.9063213E0,2.1618658E2,6.311198E0,3.828944E1,1.7789714E2,1.3509068E0,4.9602914E0],"tree_param":{"num_deleted":"0","num_feature":"18","num_nodes":"9","size_leaf_vector":"1"}},{"base_weights":[-1.4884726E-3,-1.7327195E-1,8.264725E-2,-2.4103937E-1,3.0015087E-1,5.093217E-1,2.1775724E-2,-3.9444894E-2,-1.0308377E-2,6.1070144E-2,-2.6276976E-2,-2.685883E-2,6.735393E-2,-4.0239383E-2,6.314973E-3],"categories":[],"categories_nodes":[],"categories_segments":[],"categories_sizes":[],"default_left":[0,0,0,0,0,0,0,0,0,0,0,0,0,0,0],"id":25,"left_children":[1,3,5,7,9,11,13,-1,-1,-1,-1,-1,-1,-1,-1],"loss_changes":[3.1521544E0,2.3726048E0,3.7914202E0,1.2984624E0,1.8078176E0,2.5103087E0,2.292322E0,0E0,0E0,0E0,0E0,0E0,0E0,0E0,0E0],"parents":[2147483647,0,0,1,1,2,2,3,3,4,4,5,5,6,6],"right_children":[2,4,6,8,10,12,14,-1,-1,-1,-1,-1,-1,-1,-1],"split_conditions":[1.8569006E-1,5.548821E-1,3.8575464E-1,1.9042115E-1,9.043696E-2,1.1958031E-1,2.0085016E-1,-3.9444894E-2,-1.0308377E-2,6.1070144E-2,-2.6276976E-2,-2.685883E-2,6.735393E-2,-4.0239383E-2,6.314973E-3],"split_indices":[11,2,2,7,11,16,8,0,0,0,0,0,0,0,0],"split_type":[0,0,0,0,0,0,0,0,0,0,0,0,0,0,0],"sum_hessian":[2.1610414E2,7.069787E1,1.4540628E2,6.227453E1,8.423337E0,1.7234583E1,1.2817169E2,2.860543E1,3.3669098E1,5.373834E0,3.049503E0,2.8932924E0,1.434129E1,1.0615455E1,1.17556244E2],"tree_param":{"num_deleted":"0","num_feature":"18","num_nodes":"15","size_leaf_vector":"1"}},{"base_weights":[-6.365586E-4,5.80897E-2,-1.779463E-1,-2.7702734E-1,1.1960535E-1,-1.0817114E-1,-5.172189E-1,5.3899217E-2,-3.5066243E-2,-2.4696965E-2,1.7655326E-2,-2.6070898E-2,2.410057E-2,-6.645247E-2,-2.0397421E-2],"categories":[],"categories_nodes":[],"categories_segments":[],"categories_sizes":[],"default_left":[0,0,0,0,0,0,0,0,0,0,0,0,0,0,0],"id":26,"left_children":[1,3,5,7,9,11,13,-1,-1,-1,-1,-1,-1,-1,-1],"loss_changes":[2.5854282E0,3.8783703E0,1.4064478E0,1.9454188E0,3.348136E0,2.8592412E0,3.3848667E-1,0E0,0E0,0E0,0E0,0E0,0E0,0E0,0E0],"parents":[2147483647,0,0,1,1,2,2,3,3,4,4,5,5,6,6],"right_children":[2,4,6,8,10,12,14,-1,-1,-1,-1,-1,-1,-1,-1],"split_conditions":[3.2075563E-1,2.829181E-1,5.8299994E-1,3.2361546E-1,8.1572555E-2,2.3421685E-1,9.962413E-1,5.3899217E-2,-3.5066243E-2,-2.4696965E-2,1.7655326E-2,-2.6070898E-2,2.410057E-2,-6.645247E-2,-2.0397421E-2],"split_indices":[3,1,4,12,16,6,11,0,0,0,0,0,0,0,0],"split_type":[0,0,0,0,0,0,0,0,0,0,0,0,0,0,0],"sum_hessian":[2.4630205E2,1.8552667E2,6.077538E1,2.8230858E1,1.572958E2,5.1502213E1,9.273168E0,1.8135412E0,2.6417316E1,2.0701708E1,1.365941E2,3.602017E1,1.5482043E1,5.54443E0,3.7287374E0],"tree_param":{"num_deleted":"0","num_feature":"18","num_nodes":"15","size_leaf_vector":"1"}},{"base_weights":[2.3737804E-3,3.5235777E-2,-3.1334397E-1,9.954801E-3,6.095837E-1,8.316039E-2,-4.313556E-1,-7.00322E-4,6.784656E-2,8.291837E-2,-3.937905E-2,1.3152576E-2,-5.521974E-2],"categories":[],"categories_nodes":[],"categories_segments":[],"categories_sizes":[],"default_left":[0,0,0,0,0,0,0,0,0,0,0,0,0],"id":27,"left_children":[1,3,5,7,9,-1,11,-1,-1,-1,-1,-1,-1],"loss_changes":[2.3667402E0,2.9930036E0,3.264581E0,2.259094E0,2.2416434E0,0E0,1.4435735E0,0E0,0E0,0E0,0E0,0E0,0E0],"parents":[2147483647,0,0,1,1,2,2,3,3,4,4,6,6],"right_children":[2,4,6,8,10,-1,12,-1,-1,-1,-1,-1,-1],"split_conditions":[3.895272E-1,3.7648174E-1,1.1958031E-1,6.2144333E-1,2.673678E-1,8.316039E-2,9.000118E-4,-7.00322E-4,6.784656E-2,8.291837E-2,-3.937905E-2,1.3152576E-2,-5.521974E-2],"split_indices":[1,1,16,5,6,0,9,0,0,0,0,0,0],"split_type":[0,0,0,0,0,0,0,0,0,0,0,0,0],"sum_hessian":[2.2605281E2,2.0554655E2,2.0506252E1,1.9785493E2,7.691615E0,1.3510996E0,1.9155153E1,1.9392519E2,3.9297495E0,6.4529233E0,1.2386919E0,3.3698723E0,1.5785281E1],"tree_param":{"num_deleted":"0","num_feature":"18","num_nodes":"13","size_leaf_vector":"1"}},{"base_weights":[-1.5680611E-3,-1.0275135E-1,1.3313246E-1,-1.3757472E-1,3.6262515E-1,5.893844E-2,5.0974697E-1,-1.0413467E-2,-6.089093E-2,8.060258E-2,-4.9441513E-2,9.5568E-3,-5.496508E-2,8.825872E-2,2.7474543E-2],"categories":[],"categories_nodes":[],"categories_segments":[],"categories_sizes":[],"default_left":[0,0,0,0,0,0,0,0,0,0,0,0,0,0,0],"id":28,"left_children":[1,3,5,7,9,11,13,-1,-1,-1,-1,-1,-1,-1,-1],"loss_changes":[2.9656224E0,2.0633974E0,2.5781388E0,1.7699637E0,3.7900553E0,1.8160689E0,1.0920494E0,0E0,0E0,0E0,0E0,0E0,0E0,0E0,0E0],"parents":[2147483647,0,0,1,1,2,2,3,3,4,4,5,5,6,6],"right_children":[2,4,6,8,10,12,14,-1,-1,-1,-1,-1,-1,-1,-1],"split_conditions":[2.4945045E-1,6.140234E-1,3.8239798E-1,2.897568E-1,7.81696E-1,2.996989E-1,3.2586563E-1,-1.0413467E-2,-6.089093E-2,8.060258E-2,-4.9441513E-2,9.5568E-3,-5.496508E-2,8.825872E-2,2.7474543E-2],"split_indices":[3,2,16,13,8,16,12,0,0,0,0,0,0,0,0],"split_type":[0,0,0,0,0,0,0,0,0,0,0,0,0,0,0],"sum_hessian":[2.1558577E2,1.2324485E2,9.234093E1,1.15320015E2,7.9248295E0,7.810963E1,1.4231299E1,1.0882041E2,6.4996095E0,5.2619944E0,2.6628351E0,7.44704E1,3.6392307E0,4.4366665E0,9.794633E0],"tree_param":{"num_deleted":"0","num_feature":"18","num_nodes":"15","size_leaf_vector":"1"}},{"base_weights":[-8.0745126E-4,2.0203798E-1,-4.7820877E-2,1.1416179E-1,7.349899E-2,-6.944755E-2,4.7418463E-1,-5.053028E-2,1.926608E-2,-2.6336492E-3,-2.992296E-2,-3.9517697E-2,6.8340614E-2],"categories":[],"categories_nodes":[],"categories_segments":[],"categories_sizes":[],"default_left":[0,0,0,0,0,0,0,0,0,0,0,0,0],"id":29,"left_children":[1,3,5,7,-1,9,11,-1,-1,-1,-1,-1,-1],"loss_changes":[2.364146E0,2.1007357E0,2.304847E0,2.1021578E0,0E0,1.9150261E0,1.7494948E0,0E0,0E0,0E0,0E0,0E0,0E0],"parents":[2147483647,0,0,1,1,2,2,3,3,5,5,6,6],"right_children":[2,4,6,8,-1,10,12,-1,-1,-1,-1,-1,-1],"split_conditions":[4.1879723E-3,3.0965619E-3,7.920524E-1,1.3776846E-1,7.349899E-2,4.1511178E-1,6.951038E-2,-5.053028E-2,1.926608E-2,-2.6336492E-3,-2.992296E-2,-3.9517697E-2,6.8340614E-2],"split_indices":[9,9,8,0,0,16,16,0,0,0,0,0,0],"split_type":[0,0,0,0,0,0,0,0,0,0,0,0,0],"sum_hessian":[2.4589294E2,4.5646755E1,2.0024619E2,4.0227943E1,5.4188094E0,1.931125E2,7.133683E0,3.912883E0,3.6315063E1,1.6354355E2,2.9568958E1,1.2113711E0,5.922312E0],"tree_param":{"num_deleted":"0","num_feature":"18","num_nodes":"13","size_leaf_vector":"1"}},{"base_weights":[2.6133263E-3,2.9373372E-1,-3.045635E-2,5.8684564E-1,-2.7915323E-2,2.2660416E-2,-3.0827358E-1,7.105143E-2,1.3920541E-2,-4.3290168E-2,2.897814E-2,-2.9681185E-3,4.8403855E-2,-4.1682858E-2,3.250579E-2],"categories":[],"categories_nodes":[],"categories_segments":[],"categories_sizes":[],"default_left":[0,0,0,0,0,0,0,0,0,0,0,0,0,0,0],"id":30,"left_children":[1,3,5,7,9,11,13,-1,-1,-1,-1,-1,-1,-1,-1],"loss_changes":[2.1917458E0,2.2057452E0,3.0248759E0,5.7622194E-1,1.672833E0,4.1829114E0,2.3969524E0,0E0,0E0,0E0,0E0,0E0,0E0,0E0,0E0],"parents":[2147483647,0,0,1,1,2,2,3,3,4,4,5,5,6,6],"right_children":[2,4,6,8,10,12,14,-1,-1,-1,-1,-1,-1,-1,-1],"split_conditions":[2.7357092E-1,2.5259545E-1,2.673678E-1,6.356504E-1,3.2592013E-1,7.338633E-1,3.2592016E-1,7.105143E-2,1.3920541E-2,-4.3290168E-2,2.897814E-2,-2.9681185E-3,4.8403855E-2,-4.1682858E-2,3.250579E-2],"split_indices":[1,5,6,4,12,15,12,0,0,0,0,0,0,0,0],"split_type":[0,0,0,0,0,0,0,0,0,0,0,0,0,0,0],"sum_hessian":[2.2573123E2,2.2222134E1,2.0350911E2,1.1195459E1,1.1026674E1,1.7161577E2,3.1893332E1,8.311903E0,2.8835561E0,4.687993E0,6.338681E0,1.5497061E2,1.664516E1,2.7518436E1,4.374897E0],"tree_param":{"num_deleted":"0","num_feature":"18","num_nodes":"15","size_leaf_vector":"1"}},{"base_weights":[-1.7597851E-3,-1.6609919E-1,7.7717654E-2,-2.4526955E-1,2.2378811E-1,4.7524026E-1,2.0471577E-2,-3.704057E-2,-6.3587786E-3,5.57021E-2,-2.3572376E-2,-2.5428062E-2,6.2446218E-2,-5.7222534E-2,4.7941385E-3],"categories":[],"categories_nodes":[],"categories_segments":[],"categories_sizes":[],"default_left":[0,0,0,0,0,0,0,0,0,0,0,0,0,0,0],"id":31,"left_children":[1,3,5,7,9,11,13,-1,-1,-1,-1,-1,-1,-1,-1],"loss_changes":[2.83577E0,2.2393594E0,3.3208199E0,1.3246629E0,2.0404217E0,2.159439E0,2.1273441E0,0E0,0E0,0E0,0E0,0E0,0E0,0E0,0E0],"parents":[2147483647,0,0,1,1,2,2,3,3,4,4,5,5,6,6],"right_children":[2,4,6,8,10,12,14,-1,-1,-1,-1,-1,-1,-1,-1],"split_conditions":[1.8569006E-1,5.5130255E-1,3.8575464E-1,2.6845267E-1,8.803214E-3,1.1958031E-1,2.8750172E-1,-3.704057E-2,-6.3587786E-3,5.57021E-2,-2.3572376E-2,-2.5428062E-2,6.2446218E-2,-5.7222534E-2,4.7941385E-3],"split_indices":[11,2,2,3,9,16,13,0,0,0,0,0,0,0,0],"split_type":[0,0,0,0,0,0,0,0,0,0,0,0,0,0,0],"sum_hessian":[2.1512447E2,6.976926E1,1.4535521E2,5.83015E1,1.1467755E1,1.7378113E1,1.279771E2,3.3908047E1,2.4393454E1,6.5242443E0,4.9435115E0,2.8314729E0,1.454664E1,4.7902446E0,1.2318685E2],"tree_param":{"num_deleted":"0","num_feature":"18","num_nodes":"15","size_leaf_vector":"1"}},{"base_weights":[-8.611675E-4,5.440837E-2,-1.6859022E-1,-2.6457033E-1,1.1236516E-1,-9.997804E-2,-5.0432193E-1,5.232292E-2,-3.3656348E-2,6.6922046E-2,7.5822803E-3,-2.4613982E-2,2.2861745E-2,-2.9976459E-3,-5.75183E-2],"categories":[],"categories_nodes":[],"categories_segments":[],"categories_sizes":[],"default_left":[0,0,0,0,0,0,0,0,0,0,0,0,0,0,0],"id":32,"left_children":[1,3,5,7,9,11,13,-1,-1,-1,-1,-1,-1,-1,-1],"loss_changes":[2.2933533E0,3.469871E0,1.3619385E0,1.8157678E0,3.1679204E0,2.5612297E0,3.2415438E-1,0E0,0E0,0E0,0E0,0E0,0E0,0E0,0E0],"parents":[2147483647,0,0,1,1,2,2,3,3,4,4,5,5,6,6],"right_children":[2,4,6,8,10,12,14,-1,-1,-1,-1,-1,-1,-1,-1],"split_conditions":[3.2075563E-1,2.829181E-1,5.8299994E-1,3.2361546E-1,2.8794435E-1,2.3421685E-1,4.3078535E-4,5.232292E-2,-3.3656348E-2,6.6922046E-2,7.5822803E-3,-2.4613982E-2,2.2861745E-2,-2.9976459E-3,-5.75183E-2],"split_indices":[3,1,4,12,1,6,9,0,0,0,0,0,0,0,0],"split_type":[0,0,0,0,0,0,0,0,0,0,0,0,0,0,0],"sum_hessian":[2.4539748E2,1.8508461E2,6.0312866E1,2.7910069E1,1.5717453E2,5.1156086E1,9.15678E0,1.8121777E0,2.609789E1,8.61286E0,1.4856168E2,3.558053E1,1.5575559E1,1.3750694E0,7.781711E0],"tree_param":{"num_deleted":"0","num_feature":"18","num_nodes":"15","size_leaf_vector":"1"}},{"base_weights":[2.746128E-3,-1.1756333E-2,6.562024E-2,-2.213365E-1,3.498128E-2,3.231172E-2,-3.8329568E-2,6.0766798E-2,1.2921996E-3],"categories":[],"categories_nodes":[],"categories_segments":[],"categories_sizes":[],"default_left":[0,0,0,0,0,0,0,0,0],"id":33,"left_children":[1,3,-1,5,7,-1,-1,-1,-1],"loss_changes":[2.1525393E0,2.186154E0,0E0,3.711718E0,2.3002799E0,0E0,0E0,0E0,0E0],"parents":[2147483647,0,0,1,1,3,3,4,4],"right_children":[2,4,-1,6,8,-1,-1,-1,-1],"split_conditions":[6.2144333E-1,3.258897E-1,6.562024E-2,3.21935E-1,3.2590884E-1,3.231172E-2,-3.8329568E-2,6.0766798E-2,1.2921996E-3],"split_indices":[5,12,0,12,12,0,0,0,0],"split_type":[0,0,0,0,0,0,0,0,0],"sum_hessian":[2.2532555E2,2.2139406E2,3.9314926E0,3.9688354E1,1.817057E2,8.871206E0,3.0817146E1,5.7548747E0,1.7595082E2],"tree_param":{"num_deleted":"0","num_feature":"18","num_nodes":"9","size_leaf_vector":"1"}},{"base_weights":[-1.974624E-3,-1.5951946E-1,7.335631E-2,-2.3661363E-1,2.1267371E-1,4.4725522E-1,1.9137336E-2,2.0387119E-2,-2.8250342E-2,5.2743424E-2,-2.307546E-2,8.059605E-2,1.2027336E-2,-3.9266486E-2,5.883314E-3],"categories":[],"categories_nodes":[],"categories_segments":[],"categories_sizes":[],"default_left":[0,0,0,0,0,0,0,0,0,0,0,0,0,0,0],"id":34,"left_children":[1,3,5,7,9,11,13,-1,-1,-1,-1,-1,-1,-1,-1],"loss_changes":[2.5701342E0,2.060306E0,2.9618535E0,1.2401528E0,1.8728728E0,2.074332E0,2.1320531E0,0E0,0E0,0E0,0E0,0E0,0E0,0E0,0E0],"parents":[2147483647,0,0,1,1,2,2,3,3,4,4,5,5,6,6],"right_children":[2,4,6,8,10,12,14,-1,-1,-1,-1,-1,-1,-1,-1],"split_conditions":[1.8569006E-1,5.5130255E-1,3.8575464E-1,3.2585424E-1,8.803214E-3,1.0537358E-1,2.0085016E-1,2.0387119E-2,-2.8250342E-2,5.2743424E-2,-2.307546E-2,8.059605E-2,1.2027336E-2,-3.9266486E-2,5.883314E-3],"split_indices":[11,2,2,12,9,5,8,0,0,0,0,0,0,0,0],"split_type":[0,0,0,0,0,0,0,0,0,0,0,0,0,0,0],"sum_hessian":[2.1457404E2,6.904915E1,1.4552489E2,5.7502625E1,1.1546523E1,1.7511938E1,1.2801294E2,5.100602E0,5.240202E1,6.64221E0,4.904313E0,7.652334E0,9.859603E0,1.0473154E1,1.17539795E2],"tree_param":{"num_deleted":"0","num_feature":"18","num_nodes":"15","size_leaf_vector":"1"}},{"base_weights":[-7.963603E-4,1.9269744E-1,-4.57013E-2,-2.7986443E-1,2.779506E-1,-6.609479E-2,4.497442E-1,-4.780007E-2,2.3755124E-2,5.8199074E-2,9.456655E-3,-2.4816298E-3,-2.8815169E-2,6.503397E-2,-3.8680695E-2],"categories":[],"categories_nodes":[],"categories_segments":[],"categories_sizes":[],"default_left":[0,0,0,0,0,0,0,0,0,0,0,0,0,0,0],"id":35,"left_children":[1,3,5,7,9,11,13,-1,-1,-1,-1,-1,-1,-1,-1],"loss_changes":[2.1455739E0,1.9516995E0,2.0546184E0,8.934254E-1,2.1699908E0,1.7651887E0,1.6026103E0,0E0,0E0,0E0,0E0,0E0,0E0,0E0,0E0],"parents":[2147483647,0,0,1,1,2,2,3,3,4,4,5,5,6,6],"right_children":[2,4,6,8,10,12,14,-1,-1,-1,-1,-1,-1,-1,-1],"split_conditions":[4.1879723E-3,1.4743944E-1,7.920524E-1,3.0724645E-1,3.0824316E-1,4.1511178E-1,6.478648E-1,-4.780007E-2,2.3755124E-2,5.8199074E-2,9.456655E-3,-2.4816298E-3,-2.8815169E-2,6.503397E-2,-3.8680695E-2],"split_indices":[9,7,8,6,1,16,2,0,0,0,0,0,0,0,0],"split_type":[0,0,0,0,0,0,0,0,0,0,0,0,0,0,0],"sum_hessian":[2.4492126E2,4.5513588E1,1.9940768E2,6.6071467E0,3.890644E1,1.923565E2,7.0511723E0,4.8327117E0,1.774435E0,1.3820025E1,2.5086414E1,1.6314162E2,2.9214893E1,5.8669405E0,1.184232E0],"tree_param":{"num_deleted":"0","num_feature":"18","num_nodes":"15","size_leaf_vector":"1"}},{"base_weights":[2.7138044E-3,3.29658E-2,-2.945249E-1,8.572025E-3,5.805554E-1,7.873965E-2,-4.1142416E-1,-7.2144874E-4,6.2710464E-2,7.7754736E-2,-3.7342485E-2,3.289357E-2,-4.9626503E-2],"categories":[],"categories_nodes":[],"categories_segments":[],"categories_sizes":[],"default_left":[0,0,0,0,0,0,0,0,0,0,0,0,0],"id":36,"left_children":[1,3,5,7,9,-1,11,-1,-1,-1,-1,-1,-1],"loss_changes":[2.0402184E0,2.744738E0,2.974887E0,1.9387405E0,1.9373608E0,0E0,1.3926706E0,0E0,0E0,0E0,0E0,0E0,0E0],"parents":[2147483647,0,0,1,1,2,2,3,3,4,4,6,6],"right_children":[2,4,6,8,10,-1,12,-1,-1,-1,-1,-1,-1],"split_conditions":[3.895272E-1,3.7648174E-1,1.1958031E-1,6.2144333E-1,2.673678E-1,7.873965E-2,3.3496013E-1,-7.2144874E-4,6.2710464E-2,7.7754736E-2,-3.7342485E-2,3.289357E-2,-4.9626503E-2],"split_indices":[1,1,16,5,6,0,2,0,0,0,0,0,0],"split_type":[0,0,0,0,0,0,0,0,0,0,0,0,0],"sum_hessian":[2.2481122E2,2.0485121E2,1.9960001E1,1.9708711E2,7.764095E0,1.3870398E0,1.8572962E1,1.9314587E2,3.941234E0,6.588539E0,1.1755555E0,1.6137297E0,1.6959232E1],"tree_param":{"num_deleted":"0","num_feature":"18","num_nodes":"13","size_leaf_vector":"1"}},{"base_weights":[-2.0280378E-3,-9.334052E-2,1.174897E-1,-1.2715371E-1,3.518499E-1,6.445057E-2,5.507599E-1,-9.441258E-3,-5.9559282E-2,7.482397E-2,-4.7355648E-2,3.8792777E-3,6.950148E-2,-6.9089807E-3,7.435944E-2],"categories":[],"categories_nodes":[],"categories_segments":[],"categories_sizes":[],"default_left":[0,0,0,0,0,0,0,0,0,0,0,0,0,0,0],"id":37,"left_children":[1,3,5,7,9,11,13,-1,-1,-1,-1,-1,-1,-1,-1],"loss_changes":[2.3566751E0,1.8873124E0,2.1139393E0,1.6998388E0,3.2682157E0,1.3395922E0,1.2548728E0,0E0,0E0,0E0,0E0,0E0,0E0,0E0,0E0],"parents":[2147483647,0,0,1,1,2,2,3,3,4,4,5,5,6,6],"right_children":[2,4,6,8,10,12,14,-1,-1,-1,-1,-1,-1,-1,-1],"split_conditions":[2.4945045E-1,6.140234E-1,5.6343335E-1,2.897568E-1,7.81696E-1,6.268601E-1,3.837864E-1,-9.441258E-3,-5.9559282E-2,7.482397E-2,-4.7355648E-2,3.8792777E-3,6.950148E-2,-6.9089807E-3,7.435944E-2],"split_indices":[3,2,16,13,8,4,4,0,0,0,0,0,0,0,0],"split_type":[0,0,0,0,0,0,0,0,0,0,0,0,0,0,0],"sum_hessian":[2.1393718E2,1.2140321E2,9.253397E1,1.1349723E2,7.9059806E0,8.3465256E1,9.068716E0,1.0720573E2,6.2915015E0,5.4041862E0,2.5017943E0,8.122184E1,2.2434132E0,2.3041008E0,6.764615E0],"tree_param":{"num_deleted":"0","num_feature":"18","num_nodes":"15","size_leaf_vector":"1"}},{"base_weights":[-7.2125654E-4,-2.2475976E-1,3.5982188E-2,-2.780443E-1,4.5100197E-2,4.0760255E-1,-5.251317E-3,-3.7815418E-2,1.1860853E-2,1.3347226E-2,9.1640376E-2,1.2788597E-2,-1.1919323E-2],"categories":[],"categories_nodes":[],"categories_segments":[],"categories_sizes":[],"default_left":[0,0,0,0,0,0,0,0,0,0,0,0,0],"id":38,"left_children":[1,3,5,7,-1,9,11,-1,-1,-1,-1,-1,-1],"loss_changes":[2.024986E0,1.3735802E0,3.244706E0,1.3452933E0,0E0,2.8272603E0,2.9197383E0,0E0,0E0,0E0,0E0,0E0,0E0],"parents":[2147483647,0,0,1,1,2,2,3,3,5,5,6,6],"right_children":[2,4,6,8,-1,10,12,-1,-1,-1,-1,-1,-1],"split_conditions":[2.829181E-1,8.41171E-1,2.9372284E-1,4.7002128E-1,4.5100197E-2,2.9980323E-1,1.8817748E-1,-3.7815418E-2,1.1860853E-2,1.3347226E-2,9.1640376E-2,1.2788597E-2,-1.1919323E-2],"split_indices":[1,9,1,5,0,15,15,0,0,0,0,0,0],"split_type":[0,0,0,0,0,0,0,0,0,0,0,0,0],"sum_hessian":[2.4427573E2,3.3664333E1,2.106114E2,3.1749407E1,1.9149287E0,2.0147266E1,1.9046413E2,2.5388363E1,6.3610444E0,1.3913385E1,6.233882E0,8.777713E1,1.02687E2],"tree_param":{"num_deleted":"0","num_feature":"18","num_nodes":"13","size_leaf_vector":"1"}},{"base_weights":[2.7782833E-3,-1.4314766E-2,5.0092953E-1,1.9302338E-2,-3.5567445E-1,-4.4306837E-2,7.819283E-1,-6.331903E-4,4.391199E-2,4.9475383E-2,-4.3977555E-2,9.9826165E-2,-2.4281528E-7],"categories":[],"categories_nodes":[],"categories_segments":[],"categories_sizes":[],"default_left":[0,0,0,0,0,0,0,0,0,0,0,0,0],"id":39,"left_children":[1,3,5,7,9,-1,11,-1,-1,-1,-1,-1,-1],"loss_changes":[1.9267883E0,2.5192568E0,2.3376985E0,2.1578715E0,1.6250777E0,0E0,1.0397248E0,0E0,0E0,0E0,0E0,0E0,0E0],"parents":[2147483647,0,0,1,1,2,2,3,3,4,4,6,6],"right_children":[2,4,6,8,10,-1,12,-1,-1,-1,-1,-1,-1],"split_conditions":[8.2239527E-1,3.895272E-1,1.5846866E-1,3.6832294E-1,2.8756928E-1,-4.4306837E-2,5.9744376E-1,-6.331903E-4,4.391199E-2,4.9475383E-2,-4.3977555E-2,9.9826165E-2,-2.4281528E-7],"split_indices":[15,1,6,1,13,0,4,0,0,0,0,0,0],"split_type":[0,0,0,0,0,0,0,0,0,0,0,0,0],"sum_hessian":[2.2444153E2,2.179348E2,6.5067263E0,1.9925557E2,1.8679235E1,1.3602587E0,5.146467E0,1.8871733E2,1.0538245E1,1.2415781E0,1.7437658E1,3.814472E0,1.3319955E0],"tree_param":{"num_deleted":"0","num_feature":"18","num_nodes":"13","size_leaf_vector":"1"}},{"base_weights":[-2.0961375E-3,-4.81859E-2,2.2635466E-1,-1.3877897E-1,6.96302E-2,1.0951024E-1,6.583559E-2,-5.2815615E-3,-3.470216E-2,2.8666899E-2,-1.1773297E-2,4.9222935E-2,-1.3309463E-2],"categories":[],"categories_nodes":[],"categories_segments":[],"categories_sizes":[],"default_left":[0,0,0,0,0,0,0,0,0,0,0,0,0],"id":40,"left_children":[1,3,5,7,9,-1,11,-1,-1,-1,-1,-1,-1],"loss_changes":[2.2690413E0,1.9232147E0,4.9731555E0,1.8019621E0,3.229961E0,0E0,2.7460005E0,0E0,0E0,0E0,0E0,0E0,0E0],"parents":[2147483647,0,0,1,1,2,2,3,3,4,4,6,6],"right_children":[2,4,6,8,10,-1,12,-1,-1,-1,-1,-1,-1],"split_conditions":[2.876245E-1,2.4945045E-1,2.8767622E-1,3.683306E-1,2.2435619E-1,1.0951024E-1,3.8890052E-1,-5.2815615E-3,-3.470216E-2,2.8666899E-2,-1.1773297E-2,4.9222935E-2,-1.3309463E-2],"split_indices":[13,3,13,16,0,0,2,0,0,0,0,0,0],"split_type":[0,0,0,0,0,0,0,0,0,0,0,0,0],"sum_hessian":[2.134631E2,1.782836E2,3.5179497E1,1.0068519E2,7.759842E1,4.5784016E0,3.0601095E1,7.215355E1,2.853164E1,3.57065E1,4.1891914E1,9.26589E0,2.1335205E1],"tree_param":{"num_deleted":"0","num_feature":"18","num_nodes":"13","size_leaf_vector":"1"}},{"base_weights":[-7.2231895E-4,1.8262763E-1,-4.3288447E-2,9.8635964E-2,6.915572E-2,-6.240221E-2,4.2519093E-1,-5.089813E-2,1.767358E-2,2.9468026E-3,-1.5937367E-2,-3.791122E-2,6.1692186E-2],"categories":[],"categories_nodes":[],"categories_segments":[],"categories_sizes":[],"default_left":[0,0,0,0,0,0,0,0,0,0,0,0,0],"id":41,"left_children":[1,3,5,7,-1,9,11,-1,-1,-1,-1,-1,-1],"loss_changes":[1.9181429E0,1.9112808E0,1.8125128E0,2.0315619E0,0E0,1.719693E0,1.4593213E0,0E0,0E0,0E0,0E0,0E0,0E0],"parents":[2147483647,0,0,1,1,2,2,3,3,5,5,6,6],"right_children":[2,4,6,8,-1,10,12,-1,-1,-1,-1,-1,-1],"split_conditions":[4.1879723E-3,3.0965619E-3,7.920524E-1,1.3776846E-1,6.915572E-2,4.85056E-1,6.951038E-2,-5.089813E-2,1.767358E-2,2.9468026E-3,-1.5937367E-2,-3.791122E-2,6.1692186E-2],"split_indices":[9,9,8,0,0,2,16,0,0,0,0,0,0],"split_type":[0,0,0,0,0,0,0,0,0,0,0,0,0],"sum_hessian":[2.437611E2,4.5308437E1,1.9845265E2,3.991486E1,5.3935757E0,1.9150609E2,6.946571E0,3.9177418E0,3.599712E1,9.8697105E1,9.280898E1,1.1490483E0,5.7975225E0],"tree_param":{"num_deleted":"0","num_feature":"18","num_nodes":"13","size_leaf_vector":"1"}},{"base_weights":[2.611017E-3,-1.8866579E-1,4.5342006E-2,3.2040444E-1,-3.4956828E-1,5.9481764E-1,2.2577286E-2,-3.3050437E-2,6.095357E-2,-4.2686533E-2,6.274716E-2,7.71052E-2,-8.581731E-3,3.0946001E-2,-1.8055163E-3],"categories":[],"categories_nodes":[],"categories_segments":[],"categories_sizes":[],"default_left":[0,0,0,0,0,0,0,0,0,0,0,0,0,0,0],"id":42,"left_children":[1,3,5,7,9,11,13,-1,-1,-1,-1,-1,-1,-1,-1],"loss_changes":[1.8486265E0,3.495181E0,2.2984807E0,2.166481E0,2.6741376E0,9.433968E-1,2.086452E0,0E0,0E0,0E0,0E0,0E0,0E0,0E0,0E0],"parents":[2147483647,0,0,1,1,2,2,3,3,4,4,5,5,6,6],"right_children":[2,4,6,8,10,12,14,-1,-1,-1,-1,-1,-1,-1,-1],"split_conditions":[3.258897E-1,3.21935E-1,3.2590884E-1,1.0823429E-1,7.6762325E-1,4.8986164E-1,1.3888639E-1,-3.3050437E-2,6.095357E-2,-4.2686533E-2,6.274716E-2,7.71052E-2,-8.581731E-3,3.0946001E-2,-1.8055163E-3],"split_indices":[12,12,12,0,4,5,0,0,0,0,0,0,0,0,0],"split_type":[0,0,0,0,0,0,0,0,0,0,0,0,0,0,0],"sum_hessian":[2.2412804E2,4.0303265E1,1.8382478E2,9.44127E0,3.0861994E1,6.313197E0,1.7751158E2,2.8598704E0,6.5813994E0,2.9121214E1,1.7407787E0,4.909227E0,1.4039706E0,2.1201773E1,1.5630981E2],"tree_param":{"num_deleted":"0","num_feature":"18","num_nodes":"15","size_leaf_vector":"1"}},{"base_weights":[-1.9040108E-3,-1.4945531E-1,6.7531325E-2,-2.2552745E-1,2.123157E-1,4.112307E-1,1.7373111E-2,-3.256907E-2,-2.0298194E-3,-7.3444666E-3,7.099846E-2,7.450513E-2,1.0729999E-2,-3.8193062E-2,5.545269E-3],"categories":[],"categories_nodes":[],"categories_segments":[],"categories_sizes":[],"default_left":[0,0,0,0,0,0,0,0,0,0,0,0,0,0,0],"id":43,"left_children":[1,3,5,7,9,11,13,-1,-1,-1,-1,-1,-1,-1,-1],"loss_changes":[2.2018447E0,1.9404209E0,2.5125625E0,1.171371E0,1.8245592E0,1.8040926E0,1.9764411E0,0E0,0E0,0E0,0E0,0E0,0E0,0E0,0E0],"parents":[2147483647,0,0,1,1,2,2,3,3,4,4,5,5,6,6],"right_children":[2,4,6,8,10,12,14,-1,-1,-1,-1,-1,-1,-1,-1],"split_conditions":[1.8569006E-1,5.5130255E-1,3.8575464E-1,3.3397844E-1,9.929633E-1,1.0537358E-1,2.0085016E-1,-3.256907E-2,-2.0298194E-3,-7.3444666E-3,7.099846E-2,7.450513E-2,1.0729999E-2,-3.8193062E-2,5.545269E-3],"split_indices":[11,2,2,1,10,5,8,0,0,0,0,0,0,0,0],"split_type":[0,0,0,0,0,0,0,0,0,0,0,0,0,0,0],"sum_hessian":[2.1292805E2,6.7767815E1,1.4516023E2,5.6304813E1,1.1463006E1,1.7569563E1,1.27590675E2,3.7443398E1,1.8861414E1,7.823305E0,3.6397014E0,7.681379E0,9.888184E0,1.0322177E1,1.172685E2],"tree_param":{"num_deleted":"0","num_feature":"18","num_nodes":"15","size_leaf_vector":"1"}},{"base_weights":[-7.388689E-4,4.9343612E-2,-1.5376996E-1,-2.3871449E-1,1.0042346E-1,-8.487191E-2,-4.9218857E-1,5.103884E-2,-3.088425E-2,6.1225723E-2,6.658692E-3,-2.2593087E-2,2.258454E-2,-3.000603E-3,-5.619988E-2],"categories":[],"categories_nodes":[],"categories_segments":[],"categories_sizes":[],"default_left":[0,0,0,0,0,0,0,0,0,0,0,0,0,0,0],"id":44,"left_children":[1,3,5,7,9,11,13,-1,-1,-1,-1,-1,-1,-1,-1],"loss_changes":[1.8798105E0,2.7431984E0,1.3683211E0,1.6354355E0,2.6899524E0,2.3062813E0,3.064747E-1,0E0,0E0,0E0,0E0,0E0,0E0,0E0,0E0],"parents":[2147483647,0,0,1,1,2,2,3,3,4,4,5,5,6,6],"right_children":[2,4,6,8,10,12,14,-1,-1,-1,-1,-1,-1,-1,-1],"split_conditions":[3.2075563E-1,2.829181E-1,5.8299994E-1,3.2361546E-1,2.8794435E-1,2.3421685E-1,4.3078535E-4,5.103884E-2,-3.088425E-2,6.1225723E-2,6.658692E-3,-2.2593087E-2,2.258454E-2,-3.000603E-3,-5.619988E-2],"split_indices":[3,1,4,12,1,6,9,0,0,0,0,0,0,0,0],"split_type":[0,0,0,0,0,0,0,0,0,0,0,0,0,0,0],"sum_hessian":[2.4328233E2,1.8380577E2,5.9476555E1,2.7130957E1,1.5667482E2,5.045525E1,9.021305E0,1.7850634E0,2.5345892E1,8.655252E0,1.4801956E2,3.4889187E1,1.5566065E1,1.3714385E0,7.649866E0],"tree_param":{"num_deleted":"0","num_feature":"18","num_nodes":"15","size_leaf_vector":"1"}},{"base_weights":[2.6422152E-3,-1.0794428E-2,6.0382503E-1,5.3184077E-2,-1.605626E-1,6.93047E-2,2.3183053E-2,2.2061162E-2,-1.4606274E-2,-2.392609E-2,3.920506E-2],"categories":[],"categories_nodes":[],"categories_segments":[],"categories_sizes":[],"default_left":[0,0,0,0,0,0,0,0,0,0,0],"id":45,"left_children":[1,3,5,7,9,-1,-1,-1,-1,-1,-1],"loss_changes":[1.8209772E0,2.1232035E0,2.8966665E-3,5.2158146E0,2.977448E0,0E0,0E0,0E0,0E0,0E0,0E0],"parents":[2147483647,0,0,1,1,2,2,3,3,4,4],"right_children":[2,4,6,8,10,-1,-1,-1,-1,-1,-1],"split_conditions":[6.2144333E-1,5.369238E-1,1.4355399E-1,3.369102E-1,3.3872625E-1,6.93047E-2,2.3183053E-2,2.2061162E-2,-1.4606274E-2,-2.392609E-2,3.920506E-2],"split_indices":[5,17,7,1,1,0,0,0,0,0,0],"split_type":[0,0,0,0,0,0,0,0,0,0,0],"sum_hessian":[2.2362077E2,2.1969261E2,3.9281614E0,1.5438623E2,6.530638E1,2.4721622E0,1.4559991E0,8.383352E1,7.055272E1,5.766174E1,7.6446385E0],"tree_param":{"num_deleted":"0","num_feature":"18","num_nodes":"11","size_leaf_vector":"1"}},{"base_weights":[-2.002202E-3,-1.4369021E-1,6.410706E-2,-2.0206413E-1,3.087735E-1,3.8931406E-1,1.654838E-2,1.3288194E-3,-2.8921345E-2,-3.8956363E-2,5.1179606E-2,1.5895516E-2,8.1153534E-2,-5.55407E-2,4.2230226E-3],"categories":[],"categories_nodes":[],"categories_segments":[],"categories_sizes":[],"default_left":[0,0,0,0,0,0,0,0,0,0,0,0,0,0,0],"id":46,"left_children":[1,3,5,7,9,11,13,-1,-1,-1,-1,-1,-1,-1,-1],"loss_changes":[2.0069196E0,1.8626381E0,2.253408E0,1.1482229E0,1.3597264E0,1.679815E0,1.9112121E0,0E0,0E0,0E0,0E0,0E0,0E0,0E0,0E0],"parents":[2147483647,0,0,1,1,2,2,3,3,4,4,5,5,6,6],"right_children":[2,4,6,8,10,12,14,-1,-1,-1,-1,-1,-1,-1,-1],"split_conditions":[1.8569006E-1,5.603265E-1,3.8575464E-1,2.5500345E-1,1.03489505E-2,3.7229726E-1,2.8750172E-1,1.3288194E-3,-2.8921345E-2,-3.8956363E-2,5.1179606E-2,1.5895516E-2,8.1153534E-2,-5.55407E-2,4.2230226E-3],"split_indices":[11,2,2,4,15,2,13,0,0,0,0,0,0,0,0],"split_type":[0,0,0,0,0,0,0,0,0,0,0,0,0,0,0],"sum_hessian":[2.1227336E2,6.715995E1,1.4511342E2,5.9975693E1,7.184259E0,1.759724E1,1.27516174E2,1.7522888E1,4.2452805E1,1.4112297E0,5.773029E0,1.2276048E1,5.3211923E0,4.593297E0,1.22922874E2],"tree_param":{"num_deleted":"0","num_feature":"18","num_nodes":"15","size_leaf_vector":"1"}},{"base_weights":[-6.829145E-4,4.7235288E-2,-1.4773096E-1,-2.2888422E-1,9.573085E-2,-8.1188746E-2,-4.7815418E-1,4.9007025E-2,-2.9727483E-2,-2.356569E-2,1.4649168E-2,-2.163373E-2,2.12208E-2,-2.7704944E-3,-5.475058E-2],"categories":[],"categories_nodes":[],"categories_segments":[],"categories_sizes":[],"default_left":[0,0,0,0,0,0,0,0,0,0,0,0,0,0,0],"id":47,"left_children":[1,3,5,7,9,11,13,-1,-1,-1,-1,-1,-1,-1,-1],"loss_changes":[1.7247216E0,2.4941108E0,1.2838755E0,1.5163602E0,2.6880488E0,2.0792015E0,2.9346275E-1,0E0,0E0,0E0,0E0,0E0,0E0,0E0,0E0],"parents":[2147483647,0,0,1,1,2,2,3,3,4,4,5,5,6,6],"right_children":[2,4,6,8,10,12,14,-1,-1,-1,-1,-1,-1,-1,-1],"split_conditions":[3.2075563E-1,2.829181E-1,5.8299994E-1,3.2361546E-1,8.1572555E-2,2.3421685E-1,1.9265494E-1,4.9007025E-2,-2.9727483E-2,-2.356569E-2,1.4649168E-2,-2.163373E-2,2.12208E-2,-2.7704944E-3,-5.475058E-2],"split_indices":[3,1,4,12,16,6,0,0,0,0,0,0,0,0,0],"split_type":[0,0,0,0,0,0,0,0,0,0,0,0,0,0,0],"sum_hessian":[2.4278026E2,1.8362242E2,5.9157833E1,2.6876396E1,1.5674602E2,5.0278267E1,8.879567E0,1.7989739E0,2.5077421E1,2.0336754E1,1.3640927E2,3.4602036E1,1.5676231E1,1.3714263E0,7.508141E0],"tree_param":{"num_deleted":"0","num_feature":"18","num_nodes":"15","size_leaf_vector":"1"}},{"base_weights":[2.8611086E-3,-1.3737084E-2,4.831936E-1,1.6521774E-2,-3.3142662E-1,-4.274931E-2,7.4758816E-1,-1.1559739E-3,4.0098842E-2,4.769528E-2,-4.160205E-2,9.393808E-2,1.6529866E-3],"categories":[],"categories_nodes":[],"categories_segments":[],"categories_sizes":[],"default_left":[0,0,0,0,0,0,0,0,0,0,0,0,0],"id":48,"left_children":[1,3,5,7,9,-1,11,-1,-1,-1,-1,-1,-1],"loss_changes":[1.7938803E0,2.0977895E0,2.1291268E0,2.1604693E0,1.4960535E0,0E0,8.521216E-1,0E0,0E0,0E0,0E0,0E0,0E0],"parents":[2147483647,0,0,1,1,2,2,3,3,4,4,6,6],"right_children":[2,4,6,8,10,-1,12,-1,-1,-1,-1,-1,-1],"split_conditions":[8.2239527E-1,3.895272E-1,1.5846866E-1,3.6671048E-1,2.8756928E-1,-4.274931E-2,5.9744376E-1,-1.1559739E-3,4.0098842E-2,4.769528E-2,-4.160205E-2,9.393808E-2,1.6529866E-3],"split_indices":[15,1,6,1,13,0,4,0,0,0,0,0,0],"split_type":[0,0,0,0,0,0,0,0,0,0,0,0,0],"sum_hessian":[2.2317168E2,2.1665639E2,6.515297E0,1.9868071E2,1.7975674E1,1.3271512E0,5.1881456E0,1.8606073E2,1.2619975E1,1.2635012E0,1.6712173E1,3.884175E0,1.3039708E0],"tree_param":{"num_deleted":"0","num_feature":"18","num_nodes":"13","size_leaf_vector":"1"}},{"base_weights":[-1.937107E-3,-1.3834873E-1,6.1109778E-2,-2.1134639E-1,1.992172E-1,-5.4406505E-2,8.399084E-2,-4.821603E-2,-1.394499E-2,-7.3351646E-3,6.638348E-2,-3.5361283E-2,1.1475596E-2],"categories":[],"categories_nodes":[],"categories_segments":[],"categories_sizes":[],"default_left":[0,0,0,0,0,0,0,0,0,0,0,0,0],"id":49,"left_children":[1,3,5,7,9,-1,11,-1,-1,-1,-1,-1,-1],"loss_changes":[1.8372567E0,1.70592E0,2.0690608E0,1.0231333E0,1.6342151E0,0E0,1.947808E0,0E0,0E0,0E0,0E0,0E0,0E0],"parents":[2147483647,0,0,1,1,2,2,3,3,4,4,6,6],"right_children":[2,4,6,8,10,-1,12,-1,-1,-1,-1,-1,-1],"split_conditions":[1.8569006E-1,5.5130255E-1,2.8750172E-1,1.6508757E-1,9.929633E-1,-5.4406505E-2,1.0866615E-3,-4.821603E-2,-1.394499E-2,-7.3351646E-3,6.638348E-2,-3.5361283E-2,1.1475596E-2],"split_indices":[11,2,13,0,10,0,9,0,0,0,0,0,0],"split_type":[0,0,0,0,0,0,0,0,0,0,0,0,0],"sum_hessian":[2.116433E2,6.652084E1,1.4512245E2,5.5000957E1,1.1519885E1,4.4572034E0,1.4066525E2,1.0341418E1,4.4659542E1,7.7912545E0,3.7286305E0,8.550388E0,1.3211487E2],"tree_param":{"num_deleted":"0","num_feature":"18","num_nodes":"13","size_leaf_vector":"1"}},{"base_weights":[-9.43668E-4,1.6830145E-1,-4.030614E-2,8.799355E-2,6.568711E-2,-7.701119E-2,1.8459842E-1,-4.9386345E-2,1.628518E-2,9.645111E-3,-1.8816624E-2,-1.919488E-2,4.314376E-2],"categories":[],"categories_nodes":[],"categories_segments":[],"categories_sizes":[],"default_left":[0,0,0,0,0,0,0,0,0,0,0,0,0],"id":50,"left_children":[1,3,5,7,-1,9,11,-1,-1,-1,-1,-1,-1],"loss_changes":[1.6267238E0,1.7500497E0,1.6494621E0,1.8543398E0,0E0,3.31526E0,2.6934147E0,0E0,0E0,0E0,0E0,0E0,0E0],"parents":[2147483647,0,0,1,1,2,2,3,3,5,5,6,6],"right_children":[2,4,6,8,-1,10,12,-1,-1,-1,-1,-1,-1],"split_conditions":[4.1879723E-3,3.0965619E-3,7.575764E-1,1.3776846E-1,6.568711E-2,1.9518042E-1,4.304513E-1,-4.9386345E-2,1.628518E-2,9.645111E-3,-1.8816624E-2,-1.919488E-2,4.314376E-2],"split_indices":[9,9,8,0,0,16,4,0,0,0,0,0,0],"split_type":[0,0,0,0,0,0,0,0,0,0,0,0,0],"sum_hessian":[2.4216467E2,4.5076313E1,1.9708835E2,3.972644E1,5.3498697E0,1.7000125E2,2.70871E1,3.8903418E0,3.58361E1,6.6444305E1,1.0355695E2,1.0813595E1,1.6273504E1],"tree_param":{"num_deleted":"0","num_feature":"18","num_nodes":"13","size_leaf_vector":"1"}},{"base_weights":[3.0782716E-3,-1.0040991E-2,5.8939064E-1,4.975275E-2,-1.512964E-1,2.2380741E-2,6.749981E-2,2.0557271E-2,-1.3885232E-2,-2.2765337E-2,3.7142824E-2],"categories":[],"categories_nodes":[],"categories_segments":[],"categories_sizes":[],"default_left":[0,0,0,0,0,0,0,0,0,0,0],"id":51,"left_children":[1,3,5,7,9,-1,-1,-1,-1,-1,-1],"loss_changes":[1.7278854E0,1.8652568E0,2.7941465E-3,4.5921764E0,2.7053723E0,0E0,0E0,0E0,0E0,0E0,0E0],"parents":[2147483647,0,0,1,1,2,2,3,3,4,4],"right_children":[2,4,6,8,10,-1,-1,-1,-1,-1,-1],"split_conditions":[6.2144333E-1,5.369238E-1,8.52483E-2,3.369102E-1,3.3872625E-1,2.2380741E-2,6.749981E-2,2.0557271E-2,-1.3885232E-2,-2.2765337E-2,3.7142824E-2],"split_indices":[5,17,0,1,1,0,0,0,0,0,0],"split_type":[0,0,0,0,0,0,0,0,0,0,0],"sum_hessian":[2.2286511E2,2.189488E2,3.9163005E0,1.5428668E2,6.4662125E1,1.42884E0,2.4874604E0,8.4437195E1,6.9849495E1,5.6913044E1,7.749081E0],"tree_param":{"num_deleted":"0","num_feature":"18","num_nodes":"11","size_leaf_vector":"1"}},{"base_weights":[-2.314483E-3,-4.3268796E-2,1.9746177E-1,-4.345069E-3,-3.225457E-1,1.0091736E-1,4.5387235E-2,-4.3518357E-3,8.6696215E-2,-4.1634675E-2,2.6390342E-2,2.2480188E-2,-3.437565E-2],"categories":[],"categories_nodes":[],"categories_segments":[],"categories_sizes":[],"default_left":[0,0,0,0,0,0,0,0,0,0,0,0,0],"id":52,"left_children":[1,3,5,7,9,-1,11,-1,-1,-1,-1,-1,-1],"loss_changes":[1.7452135E0,1.9223695E0,4.4339767E0,5.373832E0,1.2999697E0,0E0,2.2843487E0,0E0,0E0,0E0,0E0,0E0,0E0],"parents":[2147483647,0,0,1,1,2,2,3,3,4,4,6,6],"right_children":[2,4,6,8,10,-1,12,-1,-1,-1,-1,-1,-1],"split_conditions":[2.876245E-1,2.875734E-1,2.8767622E-1,2.8757283E-1,9.31715E-1,1.0091736E-1,4.1665244E-1,-4.3518357E-3,8.6696215E-2,-4.1634675E-2,2.6390342E-2,2.2480188E-2,-3.437565E-2],"split_indices":[13,13,13,13,11,0,5,0,0,0,0,0,0],"split_type":[0,0,0,0,0,0,0,0,0,0,0,0,0],"sum_hessian":[2.112627E2,1.7597174E2,3.5290955E1,1.5533742E2,2.0634321E1,4.6792073E0,3.0611748E1,1.4956323E2,5.7741914E0,1.8039072E1,2.5952494E0,2.1240934E1,9.370812E0],"tree_param":{"num_deleted":"0","num_feature":"18","num_nodes":"13","size_leaf_vector":"1"}},{"base_weights":[-8.15092E-4,4.439267E-2,-1.4013167E-1,-2.1778691E-1,9.0000525E-2,-7.478226E-2,-4.6775603E-1,4.707818E-2,-2.8471882E-2,5.816376E-2,5.7449974E-3,-2.046015E-2,2.03109E-2,-3.0906717E-3,-5.352923E-2],"categories":[],"categories_nodes":[],"categories_segments":[],"categories_sizes":[],"default_left":[0,0,0,0,0,0,0,0,0,0,0,0,0,0,0],"id":53,"left_children":[1,3,5,7,9,11,13,-1,-1,-1,-1,-1,-1,-1,-1],"loss_changes":[1.5349106E0,2.2199273E0,1.2433243E0,1.4041767E0,2.486325E0,1.8802347E0,2.7077103E-1,0E0,0E0,0E0,0E0,0E0,0E0,0E0,0E0],"parents":[2147483647,0,0,1,1,2,2,3,3,4,4,5,5,6,6],"right_children":[2,4,6,8,10,12,14,-1,-1,-1,-1,-1,-1,-1,-1],"split_conditions":[3.2075563E-1,2.829181E-1,5.8299994E-1,3.2361546E-1,2.8794435E-1,2.3421685E-1,4.3078535E-4,4.707818E-2,-2.8471882E-2,5.816376E-2,5.7449974E-3,-2.046015E-2,2.03109E-2,-3.0906717E-3,-5.352923E-2],"split_indices":[3,1,4,12,1,6,9,0,0,0,0,0,0,0,0],"split_type":[0,0,0,0,0,0,0,0,0,0,0,0,0,0,0],"sum_hessian":[2.4171884E2,1.8301306E2,5.8705772E1,2.6559414E1,1.5645366E2,4.9967323E1,8.738449E0,1.818426E0,2.4740988E1,8.667823E0,1.4778583E2,3.4236973E1,1.5730352E1,1.3652358E0,7.3732133E0],"tree_param":{"num_deleted":"0","num_feature":"18","num_nodes":"15","size_leaf_vector":"1"}},{"base_weights":[2.900996E-3,-1.3295023E-2,4.707362E-1,-2.1695445E-1,2.9828489E-2,-4.1458186E-2,7.2271717E-1,2.7132822E-2,-3.7648972E-2,5.5048417E-2,7.660607E-4,8.971614E-2,2.9377923E-3],"categories":[],"categories_nodes":[],"categories_segments":[],"categories_sizes":[],"default_left":[0,0,0,0,0,0,0,0,0,0,0,0,0],"id":54,"left_children":[1,3,5,7,9,-1,11,-1,-1,-1,-1,-1,-1],"loss_changes":[1.6992654E0,1.9116995E0,1.9736117E0,3.0645132E0,2.072226E0,0E0,7.242329E-1,0E0,0E0,0E0,0E0,0E0,0E0],"parents":[2147483647,0,0,1,1,2,2,3,3,4,4,6,6],"right_children":[2,4,6,8,10,-1,12,-1,-1,-1,-1,-1,-1],"split_conditions":[8.2239527E-1,3.258897E-1,1.5846866E-1,3.21935E-1,3.2590884E-1,-4.1458186E-2,5.9744376E-1,2.7132822E-2,-3.7648972E-2,5.5048417E-2,7.660607E-4,8.971614E-2,2.9377923E-3],"split_indices":[15,12,6,12,12,0,4,0,0,0,0,0,0],"split_type":[0,0,0,0,0,0,0,0,0,0,0,0,0],"sum_hessian":[2.2243825E2,2.1593437E2,6.503865E0,3.7028564E1,1.7890582E2,1.2980306E0,5.2058344E0,8.946294E0,2.808227E1,6.3328986E0,1.7257292E2,3.9244664E0,1.2813678E0],"tree_param":{"num_deleted":"0","num_feature":"18","num_nodes":"13","size_leaf_vector":"1"}},{"base_weights":[-2.0109112E-3,-1.2632874E-1,6.2471453E-2,6.739518E-2,-2.1189453E-1,-5.3209543E-2,8.524309E-2,3.281712E-2,-3.002168E-2,-4.3045193E-2,-8.253325E-3,-3.4210153E-2,1.1616446E-2],"categories":[],"categories_nodes":[],"categories_segments":[],"categories_sizes":[],"default_left":[0,0,0,0,0,0,0,0,0,0,0,0,0],"id":55,"left_children":[1,3,5,7,9,-1,11,-1,-1,-1,-1,-1,-1],"loss_changes":[1.7054241E0,1.2186173E0,1.9422755E0,2.3051198E0,1.3961248E0,0E0,1.8341982E0,0E0,0E0,0E0,0E0,0E0,0E0],"parents":[2147483647,0,0,1,1,2,2,3,3,4,4,6,6],"right_children":[2,4,6,8,10,-1,12,-1,-1,-1,-1,-1,-1],"split_conditions":[2.1878561E-1,3.0110475E-1,2.8750172E-1,2.006284E-1,1.9042115E-1,-5.3209543E-2,1.0866615E-3,3.281712E-2,-3.002168E-2,-4.3045193E-2,-8.253325E-3,-3.4210153E-2,1.1616446E-2],"split_indices":[11,1,13,0,7,0,9,0,0,0,0,0,0],"split_type":[0,0,0,0,0,0,0,0,0,0,0,0,0],"sum_hessian":[2.1075986E2,7.165484E1,1.3910501E2,2.2017902E1,4.963694E1,4.3061056E0,1.347989E2,1.2943413E1,9.074491E0,1.7590338E1,3.20466E1,8.416482E0,1.2638242E2],"tree_param":{"num_deleted":"0","num_feature":"18","num_nodes":"13","size_leaf_vector":"1"}},{"base_weights":[-9.181272E-4,3.2300302E-1,-1.9703124E-2,-4.0873934E-2,7.0062196E-1,2.3421956E-2,-1.5302143E-1,-5.2674532E-2,3.558461E-2,6.2317327E-3,8.337462E-2,1.7048335E-2,-6.767781E-3,-8.074807E-3,-5.3831022E-2],"categories":[],"categories_nodes":[],"categories_segments":[],"categories_sizes":[],"default_left":[0,0,0,0,0,0,0,0,0,0,0,0,0,0,0],"id":56,"left_children":[1,3,5,7,9,11,13,-1,-1,-1,-1,-1,-1,-1,-1],"loss_changes":[1.4800651E0,1.86067E0,1.3251246E0,1.6783761E0,5.087025E-1,2.3499677E0,1.5246365E0,0E0,0E0,0E0,0E0,0E0,0E0,0E0,0E0],"parents":[2147483647,0,0,1,1,2,2,3,3,4,4,5,5,6,6],"right_children":[2,4,6,8,10,12,14,-1,-1,-1,-1,-1,-1,-1,-1],"split_conditions":[2.844207E-4,1.2774224E-4,3.2075563E-1,4.9958023E-1,2.805664E-1,4.85056E-1,5.8299994E-1,-5.2674532E-2,3.558461E-2,6.2317327E-3,8.337462E-2,1.7048335E-2,-6.767781E-3,-8.074807E-3,-5.3831022E-2],"split_indices":[9,9,3,17,1,2,4,0,0,0,0,0,0,0,0],"split_type":[0,0,0,0,0,0,0,0,0,0,0,0,0,0,0],"sum_hessian":[2.4119153E2,1.2332909E1,2.2885861E2,6.7348785E0,5.59803E0,1.7354541E2,5.5313206E1,2.879969E0,3.8549097E0,1.2193933E0,4.3786373E0,6.605008E1,1.0749533E2,4.7594833E1,7.718372E0],"tree_param":{"num_deleted":"0","num_feature":"18","num_nodes":"15","size_leaf_vector":"1"}},{"base_weights":[3.1317621E-3,-9.542845E-3,5.703646E-2,4.4704646E-2,-1.5844922E-1,-4.7079767E-3,3.1350758E-2,7.74013E-2,-1.9488541E-2],"categories":[],"categories_nodes":[],"categories_segments":[],"categories_sizes":[],"default_left":[0,0,0,0,0,0,0,0,0],"id":57,"left_children":[1,3,-1,5,7,-1,-1,-1,-1],"loss_changes":[1.6081184E0,1.7763771E0,0E0,3.994941E0,2.1454487E0,0E0,0E0,0E0,0E0],"parents":[2147483647,0,0,1,1,3,3,4,4],"right_children":[2,4,-1,6,8,-1,-1,-1,-1],"split_conditions":[6.2144333E-1,5.2842754E-1,5.703646E-2,4.987994E-1,2.544189E-1,-4.7079767E-3,3.1350758E-2,7.74013E-2,-1.9488541E-2],"split_indices":[5,2,0,2,17,0,0,0,0],"split_type":[0,0,0,0,0,0,0,0,0],"sum_hessian":[2.2192036E2,2.180317E2,3.8886611E0,1.6032434E2,5.7707348E1,1.2013006E2,4.019429E1,1.4088788E0,5.629847E1],"tree_param":{"num_deleted":"0","num_feature":"18","num_nodes":"9","size_leaf_vector":"1"}},{"base_weights":[-2.4401776E-3,-1.2910222E-1,5.5178083E-2,-1.99237E-1,1.871062E-1,3.5811397E-1,1.0960502E-2,1.621826E-2,-2.4571804E-2,4.6954878E-2,-2.2530422E-2,6.697121E-2,8.128899E-3,-3.763333E-2,4.7537535E-3],"categories":[],"categories_nodes":[],"categories_segments":[],"categories_sizes":[],"default_left":[0,0,0,0,0,0,0,0,0,0,0,0,0,0,0],"id":58,"left_children":[1,3,5,7,9,11,13,-1,-1,-1,-1,-1,-1,-1,-1],"loss_changes":[1.5491389E0,1.5090292E0,1.9507986E0,9.60449E-1,1.5691507E0,1.5461307E0,1.8364257E0,0E0,0E0,0E0,0E0,0E0,0E0,0E0,0E0],"parents":[2147483647,0,0,1,1,2,2,3,3,4,4,5,5,6,6],"right_children":[2,4,6,8,10,12,14,-1,-1,-1,-1,-1,-1,-1,-1],"split_conditions":[1.8569006E-1,5.5130255E-1,3.8575464E-1,8.0353945E-2,8.803214E-3,1.0537358E-1,2.0085016E-1,1.621826E-2,-2.4571804E-2,4.6954878E-2,-2.2530422E-2,6.697121E-2,8.128899E-3,-3.763333E-2,4.7537535E-3],"split_indices":[11,2,2,15,9,5,8,0,0,0,0,0,0,0,0],"split_type":[0,0,0,0,0,0,0,0,0,0,0,0,0,0,0],"sum_hessian":[2.1029152E2,6.536319E1,1.4492833E2,5.380025E1,1.1562938E1,1.755559E1,1.27372734E2,5.8469853E0,4.7953266E1,6.7806253E0,4.7823124E0,7.591372E0,9.964218E0,1.0189805E1,1.1718293E2],"tree_param":{"num_deleted":"0","num_feature":"18","num_nodes":"15","size_leaf_vector":"1"}},{"base_weights":[-7.552392E-4,3.0932462E-1,-1.8655729E-2,-4.3771796E-2,6.7309684E-1,2.2583243E-2,-1.4673212E-1,-5.177458E-2,3.4027513E-2,6.0587036E-3,8.012492E-2,1.6253393E-2,-6.453439E-3,-7.702574E-3,-5.240933E-2],"categories":[],"categories_nodes":[],"categories_segments":[],"categories_sizes":[],"default_left":[0,0,0,0,0,0,0,0,0,0,0,0,0,0,0],"id":59,"left_children":[1,3,5,7,9,11,13,-1,-1,-1,-1,-1,-1,-1,-1],"loss_changes":[1.3473825E0,1.7312171E0,1.2152499E0,1.5708684E0,4.6848083E-1,2.137255E0,1.4332303E0,0E0,0E0,0E0,0E0,0E0,0E0,0E0,0E0],"parents":[2147483647,0,0,1,1,2,2,3,3,4,4,5,5,6,6],"right_children":[2,4,6,8,10,12,14,-1,-1,-1,-1,-1,-1,-1,-1],"split_conditions":[2.844207E-4,1.2774224E-4,3.2075563E-1,4.9958023E-1,2.805664E-1,4.85056E-1,5.8299994E-1,-5.177458E-2,3.4027513E-2,6.0587036E-3,8.012492E-2,1.6253393E-2,-6.453439E-3,-7.702574E-3,-5.240933E-2],"split_indices":[9,9,3,17,1,2,4,0,0,0,0,0,0,0,0],"split_type":[0,0,0,0,0,0,0,0,0,0,0,0,0,0,0],"sum_hessian":[2.4070656E2,1.2248725E1,2.2845784E2,6.6619544E0,5.5867705E0,1.73437E2,5.502084E1,2.8260436E0,3.835911E0,1.2214711E0,4.365299E0,6.620917E1,1.0722783E2,4.745841E1,7.5624285E0],"tree_param":{"num_deleted":"0","num_feature":"18","num_nodes":"15","size_leaf_vector":"1"}},{"base_weights":[3.1007128E-3,-9.407958E-3,5.862066E-1,1.8579766E-2,-3.1463355E-1,-3.6881573E-3,8.343023E-2,-6.131066E-4,4.2804364E-2,4.622018E-2,-3.9954767E-2],"categories":[],"categories_nodes":[],"categories_segments":[],"categories_sizes":[],"default_left":[0,0,0,0,0,0,0,0,0,0,0],"id":60,"left_children":[1,3,5,7,9,-1,-1,-1,-1,-1,-1],"loss_changes":[1.6286347E0,1.8753229E0,7.556602E-1,2.040483E0,1.4008613E0,0E0,0E0,0E0,0E0,0E0,0E0],"parents":[2147483647,0,0,1,1,2,2,3,3,4,4],"right_children":[2,4,6,8,10,-1,-1,-1,-1,-1,-1],"split_conditions":[8.484825E-1,3.895272E-1,4.2658976E-1,3.6832294E-1,2.8756928E-1,-3.6881573E-3,8.343023E-2,-6.131066E-4,4.2804364E-2,4.622018E-2,-3.9954767E-2],"split_indices":[15,1,7,1,13,0,0,0,0,0,0],"split_type":[0,0,0,0,0,0,0,0,0,0,0],"sum_hessian":[2.2153174E2,2.178425E2,3.689248E0,2.0040541E2,1.7437088E1,1.2930689E0,2.3961792E0,1.899284E2,1.0477007E1,1.2803806E0,1.6156706E1],"tree_param":{"num_deleted":"0","num_feature":"18","num_nodes":"11","size_leaf_vector":"1"}},{"base_weights":[-2.297781E-3,-5.2484114E-2,1.0895926E-2,-1.1664673E-1,7.793175E-2,3.396283E-2,-1.5011114E-2,-3.37595E-2,1.0750939E-2],"categories":[],"categories_nodes":[],"categories_segments":[],"categories_sizes":[],"default_left":[0,0,0,0,0,0,0,0,0],"id":61,"left_children":[1,-1,3,5,7,-1,-1,-1,-1],"loss_changes":[1.4584516E0,0E0,1.7747009E0,1.143409E0,1.7072885E0,0E0,0E0,0E0,0E0],"parents":[2147483647,0,0,2,2,3,3,4,4],"right_children":[2,-1,4,6,8,-1,-1,-1,-1],"split_conditions":[2.8750172E-1,-5.2484114E-2,2.1878561E-1,2.1325131E-1,1.0866615E-3,3.396283E-2,-1.5011114E-2,-3.37595E-2,1.0750939E-2],"split_indices":[13,0,11,4,9,0,0,0,0],"split_type":[0,0,0,0,0,0,0,0,0],"sum_hessian":[2.0971558E2,4.209674E0,2.055059E2,7.054555E1,1.3496036E2,4.1952944E0,6.635026E1,8.276243E0,1.2668411E2],"tree_param":{"num_deleted":"0","num_feature":"18","num_nodes":"9","size_leaf_vector":"1"}},{"base_weights":[-8.5312204E-4,1.50753E-1,-3.609281E-2,7.097008E-2,6.395497E-2,-5.4203853E-2,4.1395313E-1,-4.8731863E-2,1.4359376E-2,-1.380724E-3,-2.7382707E-2,5.9093505E-2,-3.5586756E-2],"categories":[],"categories_nodes":[],"categories_segments":[],"categories_sizes":[],"default_left":[0,0,0,0,0,0,0,0,0,0,0,0,0],"id":62,"left_children":[1,3,5,7,-1,9,11,-1,-1,-1,-1,-1,-1],"loss_changes":[1.2944233E0,1.7366812E0,1.6246428E0,1.7083794E0,0E0,1.6805745E0,1.2621372E0,0E0,0E0,0E0,0E0,0E0,0E0],"parents":[2147483647,0,0,1,1,2,2,3,3,5,5,6,6],"right_children":[2,4,6,8,-1,10,12,-1,-1,-1,-1,-1,-1],"split_conditions":[4.1879723E-3,3.0965619E-3,7.920524E-1,1.3776846E-1,6.395497E-2,4.1511178E-1,6.478648E-1,-4.8731863E-2,1.4359376E-2,-1.380724E-3,-2.7382707E-2,5.9093505E-2,-3.5586756E-2],"split_indices":[9,9,8,0,0,16,2,0,0,0,0,0,0],"split_type":[0,0,0,0,0,0,0,0,0,0,0,0,0],"sum_hessian":[2.4026712E2,4.469688E1,1.9557024E2,3.9409527E1,5.2873526E0,1.8884998E2,6.720265E0,3.879096E0,3.553043E1,1.6040804E2,2.844194E1,5.6530104E0,1.067255E0],"tree_param":{"num_deleted":"0","num_feature":"18","num_nodes":"13","size_leaf_vector":"1"}},{"base_weights":[3.39658E-3,-1.20816855E-2,4.4827813E-1,-2.0627378E-1,2.8391E-2,-3.9946783E-2,6.83585E-1,2.6352594E-2,-3.6375128E-2,3.158008E-2,-1.0170181E-3,8.473411E-2,2.842256E-3],"categories":[],"categories_nodes":[],"categories_segments":[],"categories_sizes":[],"default_left":[0,0,0,0,0,0,0,0,0,0,0,0,0],"id":63,"left_children":[1,3,5,7,9,-1,11,-1,-1,-1,-1,-1,-1],"loss_changes":[1.5355079E0,1.7011944E0,1.7686136E0,2.8571868E0,1.9912814E0,0E0,6.450827E-1,0E0,0E0,0E0,0E0,0E0,0E0],"parents":[2147483647,0,0,1,1,2,2,3,3,4,4,6,6],"right_children":[2,4,6,8,10,-1,12,-1,-1,-1,-1,-1,-1],"split_conditions":[8.2239527E-1,3.258897E-1,1.5846866E-1,3.21935E-1,1.4743944E-1,-3.9946783E-2,5.9744376E-1,2.6352594E-2,-3.6375128E-2,3.158008E-2,-1.0170181E-3,8.473411E-2,2.842256E-3],"split_indices":[15,12,6,12,7,0,4,0,0,0,0,0,0],"split_type":[0,0,0,0,0,0,0,0,0,0,0,0,0],"sum_hessian":[2.2120346E2,2.1470627E2,6.497192E0,3.632389E1,1.7838237E2,1.2600245E0,5.2371674E0,8.950026E0,2.7373867E1,2.0251482E1,1.5813089E2,3.9552367E0,1.2819309E0],"tree_param":{"num_deleted":"0","num_feature":"18","num_nodes":"13","size_leaf_vector":"1"}},{"base_weights":[-2.589332E-3,-2.4875863E-2,2.9753643E-1,-1.6118217E-3,-5.157296E-1,-4.0521777E-1,6.4443636E-1,-1.3408839E-2,6.256307E-3,-6.1718613E-2,8.438124E-3,9.900122E-3,-5.6022048E-2,8.613896E-2,5.1442004E-4],"categories":[],"categories_nodes":[],"categories_segments":[],"categories_sizes":[],"default_left":[0,0,0,0,0,0,0,0,0,0,0,0,0,0,0],"id":64,"left_children":[1,3,5,7,9,11,13,-1,-1,-1,-1,-1,-1,-1,-1],"loss_changes":[1.4143513E0,2.2456555E0,3.8245797E0,1.613753E0,5.938895E-1,4.8099977E-1,1.4064412E0,0E0,0E0,0E0,0E0,0E0,0E0,0E0,0E0],"parents":[2147483647,0,0,1,1,2,2,3,3,4,4,5,5,6,6],"right_children":[2,4,6,8,10,12,14,-1,-1,-1,-1,-1,-1,-1,-1],"split_conditions":[5.847218E-1,7.3243827E-1,2.619292E-1,1.8569006E-1,8.3754635E-1,2.1441871E-2,6.9930065E-1,-1.3408839E-2,6.256307E-3,-6.1718613E-2,8.438124E-3,9.900122E-3,-5.6022048E-2,8.613896E-2,5.1442004E-4],"split_indices":[2,17,1,11,11,10,11,0,0,0,0,0,0,0,0],"split_type":[0,0,0,0,0,0,0,0,0,0,0,0,0,0,0],"sum_hessian":[2.093453E2,1.9572816E2,1.3617131E1,1.8782927E2,7.8988953E0,4.4447637E0,9.172368E0,6.0940357E1,1.26888916E2,6.7322655E0,1.1666301E0,1.1300476E0,3.314716E0,6.588912E0,2.5834563E0],"tree_param":{"num_deleted":"0","num_feature":"18","num_nodes":"15","size_leaf_vector":"1"}},{"base_weights":[-8.7271916E-4,-1.817623E-1,2.782755E-2,-2.3412925E-1,4.4618074E-2,3.669455E-1,-1.0131071E-2,-3.327368E-2,1.447457E-2,1.1119582E-2,8.298855E-2,9.789208E-3,-1.034917E-2],"categories":[],"categories_nodes":[],"categories_segments":[],"categories_sizes":[],"default_left":[0,0,0,0,0,0,0,0,0,0,0,0,0],"id":65,"left_children":[1,3,5,7,-1,9,11,-1,-1,-1,-1,-1,-1],"loss_changes":[1.2547512E0,1.19275E0,2.6891704E0,1.2139252E0,0E0,2.397336E0,1.9121064E0,0E0,0E0,0E0,0E0,0E0,0E0],"parents":[2147483647,0,0,1,1,2,2,3,3,5,5,6,6],"right_children":[2,4,6,8,-1,10,12,-1,-1,-1,-1,-1,-1],"split_conditions":[2.829181E-1,8.41171E-1,2.9372284E-1,4.7002128E-1,4.4618074E-2,2.9980323E-1,1.8817748E-1,-3.327368E-2,1.447457E-2,1.1119582E-2,8.298855E-2,9.789208E-3,-1.034917E-2],"split_indices":[1,9,1,5,0,15,15,0,0,0,0,0,0],"split_type":[0,0,0,0,0,0,0,0,0,0,0,0,0],"sum_hessian":[2.3971541E2,3.2095234E1,2.0762018E2,3.0203571E1,1.8916613E0,2.0027733E1,1.8759245E2,2.4062695E1,6.1408772E0,1.3699618E1,6.328114E0,8.6944534E1,1.0064792E2],"tree_param":{"num_deleted":"0","num_feature":"18","num_nodes":"13","size_leaf_vector":"1"}},{"base_weights":[3.2700095E-3,-8.846252E-3,5.4524106E-1,1.124571E-2,-3.8225436E-1,6.301058E-2,2.023446E-2,-4.404156E-3,1.331786E-2,-6.1366122E-2,1.5931262E-2],"categories":[],"categories_nodes":[],"categories_segments":[],"categories_sizes":[],"default_left":[0,0,0,0,0,0,0,0,0,0,0],"id":66,"left_children":[1,3,5,7,9,-1,-1,-1,-1,-1,-1],"loss_changes":[1.4603826E0,1.6383126E0,1.4013529E-2,1.405682E0,1.4950019E0,0E0,0E0,0E0,0E0,0E0,0E0],"parents":[2147483647,0,0,1,1,2,2,3,3,4,4],"right_children":[2,4,6,8,10,-1,-1,-1,-1,-1,-1],"split_conditions":[6.2144333E-1,4.990738E-1,1.4355399E-1,8.545272E-2,5.5658597E-1,6.301058E-2,2.023446E-2,-4.404156E-3,1.331786E-2,-6.1366122E-2,1.5931262E-2],"split_indices":[5,5,7,9,5,0,0,0,0,0,0],"split_type":[0,0,0,0,0,0,0,0,0,0,0],"sum_hessian":[2.2065889E2,2.167959E2,3.862994E0,2.0664674E2,1.0149154E1,2.42518E0,1.4378141E0,1.4261879E2,6.402795E1,7.0175104E0,3.131643E0],"tree_param":{"num_deleted":"0","num_feature":"18","num_nodes":"11","size_leaf_vector":"1"}},{"base_weights":[-2.9333893E-3,-5.1686715E-2,9.820319E-3,5.690822E-1,-3.6971036E-3,3.1595842E-3,7.492819E-2,-2.6035146E-3,2.840449E-2],"categories":[],"categories_nodes":[],"categories_segments":[],"categories_sizes":[],"default_left":[0,0,0,0,0,0,0,0,0],"id":67,"left_children":[1,-1,3,5,7,-1,-1,-1,-1],"loss_changes":[1.3807399E0,0E0,1.5577407E0,4.4730735E-1,1.3052245E0,0E0,0E0,0E0,0E0],"parents":[2147483647,0,0,2,2,3,3,4,4],"right_children":[2,-1,4,6,8,-1,-1,-1,-1],"split_conditions":[2.8750172E-1,-5.1686715E-2,2.8755996E-1,3.8651943E-1,5.847218E-1,3.1595842E-3,7.492819E-2,-2.6035146E-3,2.840449E-2],"split_indices":[13,0,13,14,2,0,0,0,0],"split_type":[0,0,0,0,0,0,0,0,0],"sum_hessian":[2.0887892E2,4.100852E0,2.0477806E2,3.8627558E0,2.0091531E2,1.2649859E0,2.59777E0,1.8728545E2,1.3629861E1],"tree_param":{"num_deleted":"0","num_feature":"18","num_nodes":"9","size_leaf_vector":"1"}},{"base_weights":[-4.5463818E-4,2.4357056E-2,-2.0736803E-1,-1.714453E-1,5.915438E-2,3.74289E-1,-3.9079303E-1,-4.5611672E-2,-4.508866E-3,7.8322455E-2,4.3117274E-3,-4.053429E-2,6.3146435E-2,-6.226718E-2,8.719134E-3],"categories":[],"categories_nodes":[],"categories_segments":[],"categories_sizes":[],"default_left":[0,0,0,0,0,0,0,0,0,0,0,0,0,0,0],"id":68,"left_children":[1,3,5,7,9,11,13,-1,-1,-1,-1,-1,-1,-1,-1],"loss_changes":[1.2378029E0,1.4771036E0,2.90057E0,1.1573105E0,2.0977209E0,1.5993264E0,2.2838154E0,0E0,0E0,0E0,0E0,0E0,0E0,0E0,0E0],"parents":[2147483647,0,0,1,1,2,2,3,3,4,4,5,5,6,6],"right_children":[2,4,6,8,10,12,14,-1,-1,-1,-1,-1,-1,-1,-1],"split_conditions":[5.4805046E-1,2.829181E-1,1.555063E-1,2.9524209E-2,2.8533608E-1,4.6603817E-2,3.83578E-1,-4.5611672E-2,-4.508866E-3,7.8322455E-2,4.3117274E-3,-4.053429E-2,6.3146435E-2,-6.226718E-2,8.719134E-3],"split_indices":[7,1,8,10,1,17,1,0,0,0,0,0,0,0,0],"split_type":[0,0,0,0,0,0,0,0,0,0,0,0,0,0,0],"sum_hessian":[2.3912128E2,2.1430547E2,2.4815819E1,3.1745962E1,1.825595E2,5.700012E0,1.9115807E1,8.956939E0,2.2789022E1,2.9192238E0,1.7964027E2,1.270955E0,4.4290576E0,1.266775E1,6.4480557E0],"tree_param":{"num_deleted":"0","num_feature":"18","num_nodes":"15","size_leaf_vector":"1"}},{"base_weights":[3.132714E-3,-8.483969E-3,5.4078585E-1,1.771999E-2,-3.0012697E-1,-4.3334966E-3,7.7245675E-2,-5.98445E-4,4.0569354E-2,4.4636574E-2,-3.848515E-2],"categories":[],"categories_nodes":[],"categories_segments":[],"categories_sizes":[],"default_left":[0,0,0,0,0,0,0,0,0,0,0],"id":69,"left_children":[1,3,5,7,9,-1,-1,-1,-1,-1,-1],"loss_changes":[1.3876377E0,1.6693306E0,6.693233E-1,1.8485106E0,1.3106402E0,0E0,0E0,0E0,0E0,0E0,0E0],"parents":[2147483647,0,0,1,1,2,2,3,3,4,4],"right_children":[2,4,6,8,10,-1,-1,-1,-1,-1,-1],"split_conditions":[8.484825E-1,3.895272E-1,4.2658976E-1,3.6832294E-1,2.8756928E-1,-4.3334966E-3,7.7245675E-2,-5.98445E-4,4.0569354E-2,4.4636574E-2,-3.848515E-2],"split_indices":[15,1,7,1,13,0,0,0,0,0,0],"split_type":[0,0,0,0,0,0,0,0,0,0,0],"sum_hessian":[2.2043867E2,2.1673996E2,3.6987233E0,1.9973328E2,1.7006681E1,1.2812366E0,2.4174864E0,1.891605E2,1.0572768E1,1.2983878E0,1.5708293E1],"tree_param":{"num_deleted":"0","num_feature":"18","num_nodes":"11","size_leaf_vector":"1"}},{"base_weights":[-2.5324118E-3,-7.300042E-2,8.609263E-2,1.9211654E-1,-1.1825136E-1,3.8607664E-2,4.846271E-1,3.7974283E-2,-5.2115984E-2,-7.914923E-3,-4.906117E-2,-1.8612901E-3,2.7094293E-2,-1.0886424E-2,6.648187E-2],"categories":[],"categories_nodes":[],"categories_segments":[],"categories_sizes":[],"default_left":[0,0,0,0,0,0,0,0,0,0,0,0,0,0,0],"id":70,"left_children":[1,3,5,7,9,11,13,-1,-1,-1,-1,-1,-1,-1,-1],"loss_changes":[1.3153325E0,1.4300137E0,1.7469649E0,2.537774E0,1.429146E0,1.1278162E0,1.1254013E0,0E0,0E0,0E0,0E0,0E0,0E0,0E0,0E0],"parents":[2147483647,0,0,1,1,2,2,3,3,4,4,5,5,6,6],"right_children":[2,4,6,8,10,12,14,-1,-1,-1,-1,-1,-1,-1,-1],"split_conditions":[2.4945045E-1,1.1829567E-1,5.6343335E-1,3.2112592E-1,9.810732E-1,5.1092756E-1,3.837864E-1,3.7974283E-2,-5.2115984E-2,-7.914923E-3,-4.906117E-2,-1.8612901E-3,2.7094293E-2,-1.0886424E-2,6.648187E-2],"split_indices":[3,0,16,10,11,2,4,0,0,0,0,0,0,0,0],"split_type":[0,0,0,0,0,0,0,0,0,0,0,0,0,0,0],"sum_hessian":[2.0860759E2,1.1630603E2,9.230157E1,1.6483957E1,9.982207E1,8.345488E1,8.846687E0,1.3421151E1,3.0628061E0,9.1433105E1,8.3889675E0,6.770105E1,1.5753829E1,2.152595E0,6.694092E0],"tree_param":{"num_deleted":"0","num_feature":"18","num_nodes":"15","size_leaf_vector":"1"}},{"base_weights":[-6.79504E-4,2.9407552E-1,-1.7576573E-2,-4.6246845E-2,6.4157146E-1,2.1927452E-2,-1.4059943E-1,-5.0341047E-2,3.2036394E-2,7.2834217E-3,7.557628E-2,1.5711443E-2,-6.2953825E-3,-7.2916425E-3,-5.1247954E-2],"categories":[],"categories_nodes":[],"categories_segments":[],"categories_sizes":[],"default_left":[0,0,0,0,0,0,0,0,0,0,0,0,0,0,0],"id":71,"left_children":[1,3,5,7,9,11,13,-1,-1,-1,-1,-1,-1,-1,-1],"loss_changes":[1.1990787E0,1.5733634E0,1.1095055E0,1.4228898E0,3.6877322E-1,1.9972476E0,1.3588398E0,0E0,0E0,0E0,0E0,0E0,0E0,0E0,0E0],"parents":[2147483647,0,0,1,1,2,2,3,3,4,4,5,5,6,6],"right_children":[2,4,6,8,10,12,14,-1,-1,-1,-1,-1,-1,-1,-1],"split_conditions":[2.844207E-4,1.2774224E-4,3.2075563E-1,4.9958023E-1,2.805664E-1,4.85056E-1,5.8299994E-1,-5.0341047E-2,3.2036394E-2,7.2834217E-3,7.557628E-2,1.5711443E-2,-6.2953825E-3,-7.2916425E-3,-5.1247954E-2],"split_indices":[9,9,3,17,1,2,4,0,0,0,0,0,0,0,0],"split_type":[0,0,0,0,0,0,0,0,0,0,0,0,0,0,0],"sum_hessian":[2.3871701E2,1.205331E1,2.2666371E2,6.5274878E0,5.525823E0,1.721925E2,5.4471195E1,2.7389145E0,3.7885733E0,1.1978219E0,4.328001E0,6.6087166E1,1.0610535E2,4.709574E1,7.375454E0],"tree_param":{"num_deleted":"0","num_feature":"18","num_nodes":"15","size_leaf_vector":"1"}},{"base_weights":[3.3008847E-3,-8.585337E-3,5.3532004E-1,4.2264488E-2,-1.4943835E-1,6.1916858E-2,1.97588E-2,-4.4618314E-3,2.9262012E-2,7.284701E-2,-1.8482022E-2],"categories":[],"categories_nodes":[],"categories_segments":[],"categories_sizes":[],"default_left":[0,0,0,0,0,0,0,0,0,0,0],"id":72,"left_children":[1,3,5,7,9,-1,-1,-1,-1,-1,-1],"loss_changes":[1.4028336E0,1.5624295E0,1.4941931E-2,3.5022902E0,1.9315805E0,0E0,0E0,0E0,0E0,0E0,0E0],"parents":[2147483647,0,0,1,1,2,2,3,3,4,4],"right_children":[2,4,6,8,10,-1,-1,-1,-1,-1,-1],"split_conditions":[6.2144333E-1,5.2842754E-1,7.464025E-1,4.987994E-1,2.544189E-1,6.1916858E-2,1.97588E-2,-4.4618314E-3,2.9262012E-2,7.284701E-2,-1.8482022E-2],"split_indices":[5,2,11,2,17,0,0,0,0,0,0],"split_type":[0,0,0,0,0,0,0,0,0,0,0],"sum_hessian":[2.2011078E2,2.1626295E2,3.847823E0,1.5941275E2,5.6850197E1,2.4149513E0,1.4328716E0,1.1895328E2,4.0459473E1,1.443547E0,5.540665E1],"tree_param":{"num_deleted":"0","num_feature":"18","num_nodes":"11","size_leaf_vector":"1"}},{"base_weights":[-2.53484E-3,-5.0630014E-2,9.637997E-3,-4.8050266E-2,1.4157371E-1,-8.662826E-3,3.1635474E-2,-4.828499E-3,4.0211152E-2],"categories":[],"categories_nodes":[],"categories_segments":[],"categories_sizes":[],"default_left":[0,0,0,0,0,0,0,0,0],"id":73,"left_children":[1,-1,3,5,7,-1,-1,-1,-1],"loss_changes":[1.287272E0,0E0,1.5683796E0,2.0447135E0,3.1194654E0,0E0,0E0,0E0,0E0],"parents":[2147483647,0,0,2,2,3,3,4,4],"right_children":[2,-1,4,6,8,-1,-1,-1,-1],"split_conditions":[2.8750172E-1,-5.0630014E-2,8.3754635E-1,5.847218E-1,1.8660504E-2,-8.662826E-3,3.1635474E-2,-4.828499E-3,4.0211152E-2],"split_indices":[13,0,11,2,9,0,0,0,0],"split_type":[0,0,0,0,0,0,0,0,0],"sum_hessian":[2.0812251E2,3.9526324E0,2.0416988E2,1.4249878E2,6.1671104E1,1.2954651E2,1.2952261E1,3.614572E1,2.5525383E1],"tree_param":{"num_deleted":"0","num_feature":"18","num_nodes":"9","size_leaf_vector":"1"}},{"base_weights":[-8.349508E-4,2.2881167E-2,-2.0034447E-1,3.3836746E-1,3.923736E-3,3.55239E-1,-3.795049E-1,5.4925334E-2,-1.4145346E-2,2.5773976E-2,-2.304482E-3,-3.929075E-2,5.942604E-2,-6.062446E-2,7.6379203E-3],"categories":[],"categories_nodes":[],"categories_segments":[],"categories_sizes":[],"default_left":[0,0,0,0,0,0,0,0,0,0,0,0,0,0,0],"id":74,"left_children":[1,3,5,7,9,11,13,-1,-1,-1,-1,-1,-1,-1,-1],"loss_changes":[1.1366642E0,1.2829779E0,2.675253E0,1.3081686E0,1.3994373E0,1.4387294E0,2.0911424E0,0E0,0E0,0E0,0E0,0E0,0E0,0E0,0E0],"parents":[2147483647,0,0,1,1,2,2,3,3,4,4,5,5,6,6],"right_children":[2,4,6,8,10,12,14,-1,-1,-1,-1,-1,-1,-1,-1],"split_conditions":[5.4805046E-1,3.243005E-4,1.555063E-1,9.998492E-1,2.567583E-1,4.6603817E-2,3.83578E-1,5.4925334E-2,-1.4145346E-2,2.5773976E-2,-2.304482E-3,-3.929075E-2,5.942604E-2,-6.062446E-2,7.6379203E-3],"split_indices":[7,9,8,10,8,17,1,0,0,0,0,0,0,0,0],"split_type":[0,0,0,0,0,0,0,0,0,0,0,0,0,0,0],"sum_hessian":[2.382599E2,2.1373775E2,2.4522144E1,1.1160349E1,2.0257741E2,5.739849E0,1.8782295E1,7.652359E0,3.50799E0,1.8635101E1,1.839423E2,1.2338942E0,4.505955E0,1.2323316E1,6.4589796E0],"tree_param":{"num_deleted":"0","num_feature":"18","num_nodes":"15","size_leaf_vector":"1"}},{"base_weights":[3.4043791E-3,-1.1059467E-2,4.1731972E-1,-1.3493618E-1,4.6766516E-2,-3.9243575E-2,6.4094037E-1,-1.8648496E-2,5.55322E-2,4.717723E-2,-7.1776897E-4,7.9401284E-2,2.770078E-3],"categories":[],"categories_nodes":[],"categories_segments":[],"categories_sizes":[],"default_left":[0,0,0,0,0,0,0,0,0,0,0,0,0],"id":75,"left_children":[1,3,5,7,9,-1,11,-1,-1,-1,-1,-1,-1],"loss_changes":[1.3263735E0,1.5413916E0,1.606029E0,2.539384E0,3.3699625E0,0E0,5.638733E-1,0E0,0E0,0E0,0E0,0E0,0E0],"parents":[2147483647,0,0,1,1,2,2,3,3,4,4,6,6],"right_children":[2,4,6,8,10,-1,12,-1,-1,-1,-1,-1,-1],"split_conditions":[8.2239527E-1,3.2592008E-1,1.5846866E-1,7.2229046E-1,1.3888639E-1,-3.9243575E-2,5.9744376E-1,-1.8648496E-2,5.55322E-2,4.717723E-2,-7.1776897E-4,7.9401284E-2,2.770078E-3],"split_indices":[15,12,6,4,0,0,4,0,0,0,0,0,0],"split_type":[0,0,0,0,0,0,0,0,0,0,0,0,0],"sum_hessian":[2.1977846E2,2.1329825E2,6.480207E0,6.745673E1,1.458415E2,1.238942E0,5.2412653E0,6.3448227E1,4.008507E0,1.5553767E1,1.3028775E2,3.958411E0,1.2828541E0],"tree_param":{"num_deleted":"0","num_feature":"18","num_nodes":"13","size_leaf_vector":"1"}},{"base_weights":[-2.498892E-3,-4.9832698E-2,9.222195E-3,-4.617838E-2,1.3527597E-1,-9.826083E-4,-4.2574804E-2,3.3819433E-2,-8.131487E-3],"categories":[],"categories_nodes":[],"categories_segments":[],"categories_sizes":[],"default_left":[0,0,0,0,0,0,0,0,0],"id":76,"left_children":[1,-1,3,5,7,-1,-1,-1,-1],"loss_changes":[1.2180834E0,0E0,1.4375938E0,1.9707597E0,2.7890043E0,0E0,0E0,0E0,0E0],"parents":[2147483647,0,0,2,2,3,3,4,4],"right_children":[2,-1,4,6,8,-1,-1,-1,-1],"split_conditions":[2.8750172E-1,-4.9832698E-2,8.3754635E-1,6.54047E-1,9.815706E-1,-9.826083E-4,-4.2574804E-2,3.3819433E-2,-8.131487E-3],"split_indices":[13,0,11,15,11,0,0,0,0],"split_type":[0,0,0,0,0,0,0,0,0],"sum_hessian":[2.0780283E2,3.840158E0,2.0396268E2,1.4213019E2,6.1832485E1,1.3064398E2,1.14862E1,3.1633982E1,3.0198503E1],"tree_param":{"num_deleted":"0","num_feature":"18","num_nodes":"9","size_leaf_vector":"1"}},{"base_weights":[-9.620354E-4,6.959569E-2,-6.591808E-2,3.876667E-1,7.37933E-3,-4.0249088E-1,-1.6490487E-2,-2.6266053E-2,4.9497183E-2,8.166235E-3,-4.021118E-2,1.661803E-2,-6.071871E-2,4.7467418E-2,-4.7715693E-3],"categories":[],"categories_nodes":[],"categories_segments":[],"categories_sizes":[],"default_left":[0,0,0,0,0,0,0,0,0,0,0,0,0,0,0],"id":77,"left_children":[1,3,5,7,9,11,13,-1,-1,-1,-1,-1,-1,-1,-1],"loss_changes":[1.0995332E0,2.2729392E0,2.0712762E0,1.4416125E0,2.9896927E0,1.9577239E0,1.7089723E0,0E0,0E0,0E0,0E0,0E0,0E0,0E0,0E0],"parents":[2147483647,0,0,1,1,2,2,3,3,4,4,5,5,6,6],"right_children":[2,4,6,8,10,12,14,-1,-1,-1,-1,-1,-1,-1,-1],"split_conditions":[1.8817748E-1,4.8334768E-1,3.191151E-1,3.0659953E-1,1.7649734E-1,2.930896E-1,3.519792E-1,-2.6266053E-2,4.9497183E-2,8.166235E-3,-4.021118E-2,1.661803E-2,-6.071871E-2,4.7467418E-2,-4.7715693E-3],"split_indices":[15,2,15,1,0,4,15,0,0,0,0,0,0,0,0],"split_type":[0,0,0,0,0,0,0,0,0,0,0,0,0,0,0],"sum_hessian":[2.3790674E2,1.1400201E2,1.2390473E2,1.779533E1,9.620667E1,1.4951407E1,1.0895332E2,2.3153374E0,1.5479993E1,8.2111885E1,1.4094788E1,4.0071673E0,1.0944241E1,5.6636643E0,1.0328966E2],"tree_param":{"num_deleted":"0","num_feature":"18","num_nodes":"15","size_leaf_vector":"1"}},{"base_weights":[3.495934E-3,1.5872496E-1,-3.545718E-2,-3.5008732E-2,5.543022E-1,-2.474711E-1,8.647429E-3,3.0959606E-2,-1.6755741E-2,8.8875415E-3,7.9539426E-2,-4.3319788E-2,2.3339348E-2,6.276894E-3,-2.151696E-2],"categories":[],"categories_nodes":[],"categories_segments":[],"categories_sizes":[],"default_left":[0,0,0,0,0,0,0,0,0,0,0,0,0,0,0],"id":78,"left_children":[1,3,5,7,9,11,13,-1,-1,-1,-1,-1,-1,-1,-1],"loss_changes":[1.338069E0,3.4210777E0,1.6569779E0,1.4557804E0,1.5733604E0,2.8258648E0,1.7997817E0,0E0,0E0,0E0,0E0,0E0,0E0,0E0,0E0],"parents":[2147483647,0,0,1,1,2,2,3,3,4,4,5,5,6,6],"right_children":[2,4,6,8,10,12,14,-1,-1,-1,-1,-1,-1,-1,-1],"split_conditions":[3.39293E-1,1.1921611E-1,3.2590213E-1,3.1783468E-1,2.8533608E-1,6.0129434E-1,2.774276E-1,3.0959606E-2,-1.6755741E-2,8.8875415E-3,7.9539426E-2,-4.3319788E-2,2.3339348E-2,6.276894E-3,-2.151696E-2],"split_indices":[4,6,12,17,1,4,6,0,0,0,0,0,0,0,0],"split_type":[0,0,0,0,0,0,0,0,0,0,0,0,0,0,0],"sum_hessian":[2.1936006E2,4.3387024E1,1.7597304E2,2.9735556E1,1.3651469E1,2.9509209E1,1.4646384E2,7.889204E0,2.1846352E1,5.1254516E0,8.526018E0,2.1358814E1,8.150395E0,1.1852314E2,2.7940693E1],"tree_param":{"num_deleted":"0","num_feature":"18","num_nodes":"15","size_leaf_vector":"1"}},{"base_weights":[-2.6938708E-3,1.0809929E-2,-4.1689673E-1,-1.1827641E-2,3.6578476E-1,-9.143704E-3,-5.214101E-2,5.766252E-4,-4.729917E-2,-3.1835955E-2,6.449251E-2],"categories":[],"categories_nodes":[],"categories_segments":[],"categories_sizes":[],"default_left":[0,0,0,0,0,0,0,0,0,0,0],"id":79,"left_children":[1,3,5,7,9,-1,-1,-1,-1,-1,-1],"loss_changes":[1.1705161E0,1.6344452E0,1.770618E-1,1.5578371E0,2.533746E0,0E0,0E0,0E0,0E0,0E0,0E0],"parents":[2147483647,0,0,1,1,2,2,3,3,4,4],"right_children":[2,4,6,8,10,-1,-1,-1,-1,-1,-1],"split_conditions":[5.5658597E-1,5.847218E-1,1.018699E-1,7.3243827E-1,2.5926256E-1,-9.143704E-3,-5.214101E-2,5.766252E-4,-4.729917E-2,-3.1835955E-2,6.449251E-2],"split_indices":[5,2,9,17,1,0,0,0,0,0,0],"split_type":[0,0,0,0,0,0,0,0,0,0,0],"sum_hessian":[2.0746494E2,2.0185788E2,5.6070485E0,1.9066539E2,1.1192494E1,1.8186302E0,3.788418E0,1.8460982E2,6.055563E0,3.202643E0,7.989851E0],"tree_param":{"num_deleted":"0","num_feature":"18","num_nodes":"11","size_leaf_vector":"1"}},{"base_weights":[-8.755513E-4,3.6933143E-2,-1.1890162E-1,-1.9677968E-1,7.4867584E-2,-5.6392517E-2,-7.782008E-2,-2.8676027E-2,3.7896E-2,3.524121E-2,1.3082095E-4,-1.709752E-2,2.1963421E-2],"categories":[],"categories_nodes":[],"categories_segments":[],"categories_sizes":[],"default_left":[0,0,0,0,0,0,0,0,0,0,0,0,0],"id":80,"left_children":[1,3,5,7,9,-1,11,-1,-1,-1,-1,-1,-1],"loss_changes":[1.0685128E0,1.6227183E0,1.0181873E0,1.4350557E0,3.2000935E0,0E0,1.5433803E0,0E0,0E0,0E0,0E0,0E0,0E0],"parents":[2147483647,0,0,1,1,2,2,3,3,4,4,6,6],"right_children":[2,4,6,8,10,-1,12,-1,-1,-1,-1,-1,-1],"split_conditions":[3.2075563E-1,8.1572555E-2,1.8694603E-1,2.3815554E-1,1.9518042E-1,-5.6392517E-2,3.5218948E-1,-2.8676027E-2,3.7896E-2,3.524121E-2,1.3082095E-4,-1.709752E-2,2.1963421E-2],"split_indices":[3,16,4,0,16,0,17,0,0,0,0,0,0],"split_type":[0,0,0,0,0,0,0,0,0,0,0,0,0],"sum_hessian":[2.3746329E2,1.8037022E2,5.7093067E1,2.4603222E1,1.55767E2,3.7494512E0,5.3343616E1,2.1711868E1,2.8913538E0,3.1840353E1,1.2392665E2,4.094568E1,1.2397938E1],"tree_param":{"num_deleted":"0","num_feature":"18","num_nodes":"13","size_leaf_vector":"1"}},{"base_weights":[3.3756474E-3,-7.852103E-3,5.088515E-1,1.0617028E-2,-3.62406E-1,5.9656173E-2,1.7499303E-2,4.5166216E-3,-1.6184462E-2,-5.940325E-2,1.6149748E-2],"categories":[],"categories_nodes":[],"categories_segments":[],"categories_sizes":[],"default_left":[0,0,0,0,0,0,0,0,0,0,0],"id":81,"left_children":[1,3,5,7,9,-1,-1,-1,-1,-1,-1],"loss_changes":[1.2524143E0,1.4194386E0,3.6019564E-2,1.2373935E0,1.3982403E0,0E0,0E0,0E0,0E0,0E0,0E0],"parents":[2147483647,0,0,1,1,2,2,3,3,4,4],"right_children":[2,4,6,8,10,-1,-1,-1,-1,-1,-1],"split_conditions":[6.2144333E-1,4.990738E-1,1.4355399E-1,2.774276E-1,5.5658597E-1,5.9656173E-2,1.7499303E-2,4.5166216E-3,-1.6184462E-2,-5.940325E-2,1.6149748E-2],"split_indices":[5,5,7,6,5,0,0,0,0,0,0],"split_type":[0,0,0,0,0,0,0,0,0,0,0],"sum_hessian":[2.1897188E2,2.1517679E2,3.795092E0,2.0544498E2,9.731816E0,2.3823414E0,1.412751E0,1.7177205E2,3.3672928E1,6.655464E0,3.0763524E0],"tree_param":{"num_deleted":"0","num_feature":"18","num_nodes":"11","size_leaf_vector":"1"}},{"base_weights":[-2.7778535E-3,1.3868157E-2,-3.383584E-1,-3.5030518E-2,3.244226E-1,3.334811E-2,-4.994692E-1,4.335077E-4,-3.2001074E-2,9.203657E-2,1.6019002E-2,-5.920673E-2,2.1536543E-3],"categories":[],"categories_nodes":[],"categories_segments":[],"categories_sizes":[],"default_left":[0,0,0,0,0,0,0,0,0,0,0,0,0],"id":82,"left_children":[1,3,5,7,9,-1,11,-1,-1,-1,-1,-1,-1],"loss_changes":[1.1673621E0,3.0372863E0,1.2355262E0,1.9428132E0,2.5151322E0,0E0,4.1635966E-1,0E0,0E0,0E0,0E0,0E0,0E0],"parents":[2147483647,0,0,1,1,2,2,3,3,4,4,6,6],"right_children":[2,4,6,8,10,-1,12,-1,-1,-1,-1,-1,-1],"split_conditions":[2.897877E-1,2.876245E-1,3.0421436E-2,2.875734E-1,2.8767622E-1,3.334811E-2,3.7011704E-1,4.335077E-4,-3.2001074E-2,9.203657E-2,1.6019002E-2,-5.920673E-2,2.1536543E-3],"split_indices":[13,13,3,13,13,0,1,0,0,0,0,0,0],"split_type":[0,0,0,0,0,0,0,0,0,0,0,0,0],"sum_hessian":[2.0713704E2,1.9826125E2,8.875801E0,1.7205702E2,2.6204218E1,1.5098346E0,7.365967E0,1.5203987E2,2.0017159E1,4.6666236E0,2.1537596E1,6.1385694E0,1.2273977E0],"tree_param":{"num_deleted":"0","num_feature":"18","num_nodes":"13","size_leaf_vector":"1"}},{"base_weights":[-6.903801E-4,2.8422114E-1,-1.5761228E-2,-4.6922963E-2,6.737593E-2,-2.858275E-2,3.3995476E-1,-4.923625E-2,3.056762E-2,7.675055E-3,-7.840606E-3,4.6401292E-2,-1.3138878E-2],"categories":[],"categories_nodes":[],"categories_segments":[],"categories_sizes":[],"default_left":[0,0,0,0,0,0,0,0,0,0,0,0,0],"id":83,"left_children":[1,3,5,7,-1,9,11,-1,-1,-1,-1,-1,-1],"loss_changes":[1.0268098E0,1.5813437E0,1.045375E0,1.3172562E0,0E0,1.1611121E0,5.274504E-1,0E0,0E0,0E0,0E0,0E0,0E0],"parents":[2147483647,0,0,1,1,2,2,3,3,5,5,6,6],"right_children":[2,4,6,8,-1,10,12,-1,-1,-1,-1,-1,-1],"split_conditions":[2.3067494E-4,1.2774224E-4,7.920524E-1,4.9958023E-1,6.737593E-2,1.9518042E-1,6.357768E-1,-4.923625E-2,3.056762E-2,7.675055E-3,-7.840606E-3,4.6401292E-2,-1.3138878E-2],"split_indices":[9,9,8,17,0,16,2,0,0,0,0,0,0],"split_type":[0,0,0,0,0,0,0,0,0,0,0,0,0],"sum_hessian":[2.3709122E2,1.1014032E1,2.260772E2,6.428632E0,4.585401E0,2.1909956E2,6.977635E0,2.6652427E0,3.763389E0,7.018289E1,1.4891667E2,5.536084E0,1.4415507E0],"tree_param":{"num_deleted":"0","num_feature":"18","num_nodes":"13","size_leaf_vector":"1"}},{"base_weights":[2.8119485E-3,-1.04716085E-2,4.215175E-1,-4.7489636E-2,2.193506E-1,7.4967045E-1,-4.1620824E-2,1.55484E-3,-3.499265E-2,7.682981E-2,-1.2609906E-2,-3.6051671E-3,1.1011435E-1],"categories":[],"categories_nodes":[],"categories_segments":[],"categories_sizes":[],"default_left":[0,0,0,0,0,0,0,0,0,0,0,0,0],"id":84,"left_children":[1,3,5,7,9,11,-1,-1,-1,-1,-1,-1,-1],"loss_changes":[1.2263919E0,1.830398E0,2.175888E0,3.5338018E0,5.7584367E0,1.4836698E0,0E0,0E0,0E0,0E0,0E0,0E0,0E0],"parents":[2147483647,0,0,1,1,2,2,3,3,4,4,5,5],"right_children":[2,4,6,8,10,12,-1,-1,-1,-1,-1,-1,-1],"split_conditions":[9.9909824E-1,7.338633E-1,7.2483915E-1,4.8643655E-1,2.4920717E-1,3.012844E-1,-4.1620824E-2,1.55484E-3,-3.499265E-2,7.682981E-2,-1.2609906E-2,-3.6051671E-3,1.1011435E-1],"split_indices":[11,15,15,15,6,3,0,0,0,0,0,0,0],"split_type":[0,0,0,0,0,0,0,0,0,0,0,0,0],"sum_hessian":[2.1870515E2,2.1292503E2,5.780119E0,1.8406982E2,2.8855213E1,4.22875E0,1.5513687E0,1.5310597E2,3.0963852E1,1.0672189E1,1.8183023E1,1.584348E0,2.6444023E0],"tree_param":{"num_deleted":"0","num_feature":"18","num_nodes":"13","size_leaf_vector":"1"}},{"base_weights":[-2.5225459E-3,-4.873831E-2,8.623536E-3,5.31589E-1,-4.197876E-3,3.154351E-3,6.954741E-2,-2.9968753E-2,1.4208554E-3],"categories":[],"categories_nodes":[],"categories_segments":[],"categories_sizes":[],"default_left":[0,0,0,0,0,0,0,0,0],"id":85,"left_children":[1,-1,3,5,7,-1,-1,-1,-1],"loss_changes":[1.1269001E0,0E0,1.3704584E0,3.7887204E-1,1.0929378E0,0E0,0E0,0E0,0E0],"parents":[2147483647,0,0,2,2,3,3,4,4],"right_children":[2,-1,4,6,8,-1,-1,-1,-1],"split_conditions":[2.8750172E-1,-4.873831E-2,2.8755996E-1,3.8651943E-1,2.619292E-1,3.154351E-3,6.954741E-2,-2.9968753E-2,1.4208554E-3],"split_indices":[13,0,13,14,1,0,0,0,0],"split_type":[0,0,0,0,0,0,0,0,0],"sum_hessian":[2.0674164E2,3.6856813E0,2.0305597E2,3.8909068E0,1.9916505E2,1.2547853E0,2.6361215E0,1.0782666E1,1.8838239E2],"tree_param":{"num_deleted":"0","num_feature":"18","num_nodes":"9","size_leaf_vector":"1"}},{"base_weights":[-3.9440097E-4,2.1877402E-2,-1.8984577E-1,1.3557558E-1,-2.7361818E-2,3.353925E-1,-3.6362475E-1,-4.6605874E-2,2.2945514E-2,-3.1573534E-2,3.4610934E-3,-3.898716E-2,5.6595128E-2,-5.8865465E-2,7.814378E-3],"categories":[],"categories_nodes":[],"categories_segments":[],"categories_sizes":[],"default_left":[0,0,0,0,0,0,0,0,0,0,0,0,0,0,0],"id":86,"left_children":[1,3,5,7,9,11,13,-1,-1,-1,-1,-1,-1,-1,-1],"loss_changes":[1.0072539E0,1.1996571E0,